{"learner":{"attributes":{"best_iteration":"113","best_score":"0.09063556896641836","scikit_learn":"{\"_estimator_type\": \"regressor\"}"},"feature_names":[],"feature_types":[],"gradient_booster":{"model":{"cats":{"enc":[],"feature_segments":[],"sorted_idx":[]},"gbtree_model_param":{"num_parallel_tree":"1","num_trees":"164"},"iteration_indptr":[0,1,2,3,4,5,6,7,8,9,10,11,12,13,14,15,16,17,18,19,20,21,22,23,24,25,26,27,28,29,30,31,32,33,34,35,36,37,38,39,40,41,42,43,44,45,46,47,48,49,50,51,52,53,54,55,56,57,58,59,60,61,62,63,64,65,66,67,68,69,70,71,72,73,74,75,76,77,78,79,80,81,82,83,84,85,86,87,88,89,90,91,92,93,94,95,96,97,98,99,100,101,102,103,104,105,106,107,108,109,110,111,112,113,114,115,116,117,118,119,120,121,122,123,124,125,126,127,128,129,130,131,132,133,134,135,136,137,138,139,140,141,142,143,144,145,146,147,148,149,150,151,152,153,154,155,156,157,158,159,160,161,162,163,164],"tree_info":[0,0,0,0,0,0,0,0,0,0,0,0,0,0,0,0,0,0,0,0,0,0,0,0,0,0,0,0,0,0,0,0,0,0,0,0,0,0,0,0,0,0,0,0,0,0,0,0,0,0,0,0,0,0,0,0,0,0,0,0,0,0,0,0,0,0,0,0,0,0,0,0,0,0,0,0,0,0,0,0,0,0,0,0,0,0,0,0,0,0,0,0,0,0,0,0,0,0,0,0,0,0,0,0,0,0,0,0,0,0,0,0,0,0,0,0,0,0,0,0,0,0,0,0,0,0,0,0,0,0,0,0,0,0,0,0,0,0,0,0,0,0,0,0,0,0,0,0,0,0,0,0,0,0,0,0,0,0,0,0,0,0,0,0],"trees":[{"base_weights":[-1.2659548E-4,-3.6587063E-2,2.300833E-2,-2.2385191E-2,-4.3323748E-2,-4.0464133E-2,4.054585E-2,-7.411058E-3,-3.3846162E-2,-4.763351E-2,-3.8109116E-2,-4.81589E-3,-4.6811968E-2,8.380962E-2,6.0594194E-3,-3.8409658E-2,4.0101693E-3,-3.60537E-2,-5.1305643E-3,-4.786887E-2,-0E0,-2.9305425E-2,-4.3016355E-2,-1.0660958E-2,8.1468835E-2,3.7681608E-4,-4.7041554E-2,3.672356E-2,1.2982975E-1,-3.0556127E-2,2.0063719E-2,4.5549613E-4,-4.095367E-2,-6.8100693E-4,6.916738E-2,-0E0,-3.6868423E-2,-2.6209485E-2,6.220408E-2,-2.6338702E-4,-4.8001695E-2,-3.458669E-2,-9.293815E-3,-4.3378595E-2,3.4784822E-4,-1.3520995E-2,4.467176E-3,1.3894002E-2,-7.7570225E-3,-4.724269E-2,-0E0,-1.9021466E-2,5.8848187E-2,1.5400049E-1,8.4345624E-2,-3.1716138E-2,8.372266E-3,4.353597E-2,-5.8978107E-3,-2.1532613E-3,5.649817E-6,-7.0828875E-4,8.225279E-4,7.1049347E-3,-4.7577158E-4,-8.66789E-4,2.7320357E-3,-1.8739346E-3,-0E0,3.180799E-4,-1.6873622E-3,-0E0,5.469862E-3,-0E0,-2.4044975E-3,4.6324517E-6,-1.8375218E-3,2.5427628E-3,-8.3193224E-4,-3.479425E-4,-2.2004591E-3,6.294026E-4,-1.209463E-3,4.204777E-4,-1.5706163E-3,-2.0758684E-3,-2.4883058E-3,-1.1033348E-3,9.4384365E-3,6.458728E-3,2.4458193E-3,6.4137303E-3,1.2043341E-2,6.5841824E-3,2.7937884E-3,-2.1245608E-3,-1.0536662E-3,1.3589535E-3,5.349889E-3,-7.5764576E-4,7.311778E-4],"categories":[],"categories_nodes":[],"categories_segments":[],"categories_sizes":[],"default_left":[0,0,0,0,0,0,0,0,0,0,0,0,0,0,0,0,0,0,0,0,0,0,0,0,0,0,0,0,0,0,0,0,0,0,0,0,0,0,0,0,0,0,0,0,0,0,0,0,0,0,0,0,0,0,0,0,0,0,0,0,0,0,0,0,0,0,0,0,0,0,0,0,0,0,0,0,0,0,0,0,0,0,0,0,0,0,0,0,0,0,0,0,0,0,0,0,0,0,0,0,0],"id":0,"left_children":[1,3,5,7,9,11,13,15,17,19,21,23,25,27,29,31,33,35,37,39,-1,41,43,45,47,-1,49,51,53,55,57,-1,59,61,63,65,67,69,71,-1,73,75,77,79,-1,81,-1,-1,83,85,-1,87,89,91,93,95,-1,97,99,-1,-1,-1,-1,-1,-1,-1,-1,-1,-1,-1,-1,-1,-1,-1,-1,-1,-1,-1,-1,-1,-1,-1,-1,-1,-1,-1,-1,-1,-1,-1,-1,-1,-1,-1,-1,-1,-1,-1,-1,-1,-1],"loss_changes":[1.245916E1,5.4114676E-1,1.0057844E1,3.134601E-1,7.6898575E-2,4.370067E-1,1.0553957E1,2.8965995E-1,6.1939836E-2,2.684927E-2,6.810379E-2,1.4458545E-1,2.4980783E-2,6.7804947E0,2.0209231E0,3.0153334E-2,1.8693182E-1,3.026545E-2,1.1015886E-1,6.3204765E-3,0E0,6.345838E-2,2.4381638E-2,7.428244E-2,3.4461713E-1,0E0,2.0168781E-2,1.9217093E0,1.7068005E0,2.4186373E-1,1.7431784E0,0E0,2.2596896E-2,1.2683187E-1,2.4988653E-1,2.2722116E-2,2.4706602E-2,1.8175058E-2,6.199705E-2,0E0,6.1941147E-3,4.1638076E-2,5.9274346E-2,2.038765E-2,0E0,7.8341156E-2,0E0,0E0,7.53597E-3,1.2600422E-2,0E0,2.6654628E-1,7.539654E-1,2.2406464E0,7.205157E-1,1.1705816E-1,0E0,1.5417697E0,2.5743622E-1,0E0,0E0,0E0,0E0,0E0,0E0,0E0,0E0,0E0,0E0,0E0,0E0,0E0,0E0,0E0,0E0,0E0,0E0,0E0,0E0,0E0,0E0,0E0,0E0,0E0,0E0,0E0,0E0,0E0,0E0,0E0,0E0,0E0,0E0,0E0,0E0,0E0,0E0,0E0,0E0,0E0,0E0],"parents":[2147483647,0,0,1,1,2,2,3,3,4,4,5,5,6,6,7,7,8,8,9,9,10,10,11,11,12,12,13,13,14,14,15,15,16,16,17,17,18,18,19,19,21,21,22,22,23,23,24,24,26,26,27,27,28,28,29,29,30,30,32,32,33,33,34,34,35,35,36,36,37,37,38,38,40,40,41,41,42,42,43,43,45,45,48,48,49,49,51,51,52,52,53,53,54,54,55,55,57,57,58,58],"right_children":[2,4,6,8,10,12,14,16,18,20,22,24,26,28,30,32,34,36,38,40,-1,42,44,46,48,-1,50,52,54,56,58,-1,60,62,64,66,68,70,72,-1,74,76,78,80,-1,82,-1,-1,84,86,-1,88,90,92,94,96,-1,98,100,-1,-1,-1,-1,-1,-1,-1,-1,-1,-1,-1,-1,-1,-1,-1,-1,-1,-1,-1,-1,-1,-1,-1,-1,-1,-1,-1,-1,-1,-1,-1,-1,-1,-1,-1,-1,-1,-1,-1,-1,-1,-1],"split_conditions":[4E0,1E0,7E0,3.3E1,3.8E1,2E0,2.2E1,3.6E1,1E0,5.106836E0,3.1E1,5.437393E-2,-1.8605423E-1,3.8E1,3.6E1,-5.542496E-1,1E0,8.222809E-2,1.0627365E-1,-4.486023E-1,-0E0,8.2E1,1.9301758E0,9.320068E-2,5.708132E-2,3.7681608E-4,2.237854E-1,3.4E1,3.2E1,2.2810555E-1,2.7E1,4.5549613E-4,7.147026E-2,8.2E1,6.827793E-2,-9.0574265E-2,1.6165963E-1,-2.7260342E-1,-8.725357E-2,-2.6338702E-4,-3.7583923E-1,-5.6953126E-1,-4.0771484E-2,-1.1773948E-1,3.4784822E-4,1.4104423E-1,4.467176E-3,1.3894002E-2,-2.1885987E-1,1E0,-0E0,9.531631E-2,-4.2869188E-2,3E1,1.607174E-1,3.4E1,8.372266E-3,1.5E1,1.5E1,-2.1532613E-3,5.649817E-6,-7.0828875E-4,8.225279E-4,7.1049347E-3,-4.7577158E-4,-8.66789E-4,2.7320357E-3,-1.8739346E-3,-0E0,3.180799E-4,-1.6873622E-3,-0E0,5.469862E-3,-0E0,-2.4044975E-3,4.6324517E-6,-1.8375218E-3,2.5427628E-3,-8.3193224E-4,-3.479425E-4,-2.2004591E-3,6.294026E-4,-1.209463E-3,4.204777E-4,-1.5706163E-3,-2.0758684E-3,-2.4883058E-3,-1.1033348E-3,9.4384365E-3,6.458728E-3,2.4458193E-3,6.4137303E-3,1.2043341E-2,6.5841824E-3,2.7937884E-3,-2.1245608E-3,-1.0536662E-3,1.3589535E-3,5.349889E-3,-7.5764576E-4,7.311778E-4],"split_indices":[14,1,5,17,10,0,6,10,2,103,17,300,932,10,10,922,2,1043,312,541,0,12,768,204,302,0,108,10,17,678,6,0,54,12,141,335,419,214,325,0,526,297,233,891,0,157,0,0,30,2,0,773,653,17,358,10,0,5,5,0,0,0,0,0,0,0,0,0,0,0,0,0,0,0,0,0,0,0,0,0,0,0,0,0,0,0,0,0,0,0,0,0,0,0,0,0,0,0,0,0,0],"split_type":[0,0,0,0,0,0,0,0,0,0,0,0,0,0,0,0,0,0,0,0,0,0,0,0,0,0,0,0,0,0,0,0,0,0,0,0,0,0,0,0,0,0,0,0,0,0,0,0,0,0,0,0,0,0,0,0,0,0,0,0,0,0,0,0,0,0,0,0,0,0,0,0,0,0,0,0,0,0,0,0,0,0,0,0,0,0,0,0,0,0,0,0,0,0,0,0,0,0,0,0,0],"sum_hessian":[1.4767E4,5.734E3,9.033E3,1.851E3,3.883E3,1.954E3,7.079E3,8.07E2,1.044E3,2.111E3,1.772E3,2.98E2,1.656E3,3.138E3,3.941E3,2.19E2,5.88E2,9.66E2,7.8E1,2.102E3,9E0,6.44E2,1.128E3,2.81E2,1.7E1,5E0,1.651E3,1.553E3,1.585E3,1.088E3,2.853E3,9E0,2.1E2,5.48E2,4E1,2E1,9.46E2,6.1E1,1.7E1,9E0,2.093E3,5.05E2,1.39E2,1.122E3,6E0,2.75E2,6E0,5E0,1.2E1,1.646E3,5E0,4.4E2,1.113E3,1.032E3,5.53E2,1.083E3,5E0,1.5E3,1.353E3,2.02E2,8E0,3.1E2,2.38E2,2.1E1,1.9E1,1.5E1,5E0,9.33E2,1.3E1,9E0,5.2E1,7E0,1E1,5E0,2.088E3,2.7E1,4.78E2,1.3E1,1.26E2,2.2E1,1.1E3,7.7E1,1.98E2,5E0,7E0,5.21E2,1.125E3,4.35E2,5E0,1.35E2,9.78E2,7.99E2,2.33E2,2.05E2,3.48E2,5.32E2,5.51E2,1.195E3,3.05E2,9.36E2,4.17E2],"tree_param":{"num_deleted":"0","num_feature":"1046","num_nodes":"101","size_leaf_vector":"1"}},{"base_weights":[1.7355852E-4,-3.4980897E-2,2.2246575E-2,-4.1176595E-2,-2.1666154E-2,-3.811702E-2,3.8365044E-2,-4.4879183E-2,-3.4609005E-2,-7.023286E-3,-3.262625E-2,-1.187892E-2,-4.404437E-2,8.937088E-2,1.2688801E-2,-4.503868E-2,5.7299924E-4,-2.4565665E-2,-3.9866444E-2,-3.73538E-2,5.2471817E-3,2.5681497E-3,-3.33454E-2,5.9858356E-3,-1.4754391E-2,3.611155E-4,-4.427862E-2,1.876818E-2,1.1666124E-1,-2.3968302E-2,2.7431112E-2,-0E0,-4.5159962E-2,-2.607968E-2,2.918001E-3,-4.0359892E-2,-0E0,2.689367E-3,-3.985686E-2,-8.452634E-3,2.1147177E-2,-3.4072153E-2,2.5537258E-3,-1.9110909E-2,3.881904E-2,-4.4589464E-2,-0E0,-2.2876654E-2,4.7819972E-2,1.3399741E-1,7.234796E-2,-2.5805939E-2,1.17597334E-1,4.8712447E-2,-5.1252143E-3,-2.2657819E-3,-3.7962536E-4,-1.780315E-3,-6.624186E-4,-2.037999E-3,-0E0,1.4186184E-3,-5.5278465E-4,-0E0,-2.0610301E-3,-6.5873674E-4,1.6014641E-3,7.98524E-4,5.944972E-3,-2.0273768E-3,-1.3508325E-3,-1.4623945E-3,2.8171332E-4,-2.8281784E-4,9.86336E-3,-1.6506258E-3,-2.295457E-3,1.655762E-3,-1.4767688E-3,3.6700857E-3,-1.4352693E-3,1.8852862E-2,2.077382E-3,5.6166495E-3,1.1287191E-2,8.783375E-3,2.891912E-3,-1.9390502E-3,-7.56447E-4,-1.5883873E-3,1.749E-2,1.4922064E-3,6.4232196E-3,-7.324358E-4,1.4689063E-3],"categories":[],"categories_nodes":[],"categories_segments":[],"categories_sizes":[],"default_left":[0,0,0,0,0,0,0,0,0,0,0,0,0,0,0,0,0,0,0,0,0,0,0,0,0,0,0,0,0,0,0,0,0,0,0,0,0,0,0,0,0,0,0,0,0,0,0,0,0,0,0,0,0,0,0,0,0,0,0,0,0,0,0,0,0,0,0,0,0,0,0,0,0,0,0,0,0,0,0,0,0,0,0,0,0,0,0,0,0,0,0,0,0,0,0],"id":1,"left_children":[1,3,5,7,9,11,13,15,17,19,21,23,25,27,29,31,-1,33,35,37,39,-1,41,-1,43,-1,45,47,49,51,53,-1,55,57,-1,59,-1,61,63,65,67,69,-1,71,73,75,77,79,81,83,85,87,89,91,93,-1,-1,-1,-1,-1,-1,-1,-1,-1,-1,-1,-1,-1,-1,-1,-1,-1,-1,-1,-1,-1,-1,-1,-1,-1,-1,-1,-1,-1,-1,-1,-1,-1,-1,-1,-1,-1,-1,-1,-1],"loss_changes":[1.1467488E1,4.6295738E-1,8.837017E0,8.492136E-2,2.874112E-1,2.9139876E-1,9.377457E0,2.6069164E-2,6.723976E-2,2.9481545E-1,6.242609E-2,1.2635873E-1,2.2724152E-2,4.606596E0,2.579302E0,1.4729023E-2,0E0,6.0441643E-2,2.1760225E-2,2.6676476E-2,1.2256001E-1,0E0,6.311011E-2,0E0,8.069221E-2,0E0,2.1002054E-2,8.154024E-1,1.297926E0,3.494755E-1,2.363736E0,0E0,8.74567E-3,5.429545E-2,0E0,1.4614224E-2,0E0,6.2815165E-3,1.5497744E-2,5.5119794E-2,1.16688974E-1,3.8794637E-2,0E0,8.455125E-2,1.9645302E-1,1.4135361E-2,1.2686083E-2,1.5196212E-1,7.623121E-1,2.4054985E0,7.010665E-1,1.8118274E-1,6.325261E-1,3.0816975E0,4.4091445E-1,0E0,0E0,0E0,0E0,0E0,0E0,0E0,0E0,0E0,0E0,0E0,0E0,0E0,0E0,0E0,0E0,0E0,0E0,0E0,0E0,0E0,0E0,0E0,0E0,0E0,0E0,0E0,0E0,0E0,0E0,0E0,0E0,0E0,0E0,0E0,0E0,0E0,0E0,0E0,0E0],"parents":[2147483647,0,0,1,1,2,2,3,3,4,4,5,5,6,6,7,7,8,8,9,9,10,10,11,11,12,12,13,13,14,14,15,15,17,17,18,18,19,19,20,20,22,22,24,24,26,26,27,27,28,28,29,29,30,30,32,32,33,33,35,35,37,37,38,38,39,39,40,40,41,41,43,43,44,44,45,45,46,46,47,47,48,48,49,49,50,50,51,51,52,52,53,53,54,54],"right_children":[2,4,6,8,10,12,14,16,18,20,22,24,26,28,30,32,-1,34,36,38,40,-1,42,-1,44,-1,46,48,50,52,54,-1,56,58,-1,60,-1,62,64,66,68,70,-1,72,74,76,78,80,82,84,86,88,90,92,94,-1,-1,-1,-1,-1,-1,-1,-1,-1,-1,-1,-1,-1,-1,-1,-1,-1,-1,-1,-1,-1,-1,-1,-1,-1,-1,-1,-1,-1,-1,-1,-1,-1,-1,-1,-1,-1,-1,-1,-1],"split_conditions":[4E0,2E0,7E0,6E1,7E0,6E0,2E1,1.0658874E-1,5E0,3.6E1,-3.441345E-1,-1.22238256E-1,-1.8605423E-1,3.6E1,3.6E1,-1.4644165E-1,5.7299924E-4,2.3205653E-1,-5.350723E-2,-2.5271147E-1,8.2E1,2.5681497E-3,-1.2456894E-1,5.9858356E-3,5.617714E-2,3.611155E-4,2.699873E-1,5.4E1,6E0,1.9993897E-1,2.7E1,-0E0,5E1,2.8E1,2.918001E-3,-2.5289917E-2,-0E0,5.748663E-2,-8.692627E-2,1E0,2.864275E-2,6E1,2.5537258E-3,5.525527E-2,3.1047362E-1,2.8E1,3.7498474E-2,9.1228485E-2,-8.888912E-2,4E0,-1.5392455E-1,5.4E1,-2.167389E-1,3.8E1,4.2E1,-2.2657819E-3,-3.7962536E-4,-1.780315E-3,-6.624186E-4,-2.037999E-3,-0E0,1.4186184E-3,-5.5278465E-4,-0E0,-2.0610301E-3,-6.5873674E-4,1.6014641E-3,7.98524E-4,5.944972E-3,-2.0273768E-3,-1.3508325E-3,-1.4623945E-3,2.8171332E-4,-2.8281784E-4,9.86336E-3,-1.6506258E-3,-2.295457E-3,1.655762E-3,-1.4767688E-3,3.6700857E-3,-1.4352693E-3,1.8852862E-2,2.077382E-3,5.6166495E-3,1.1287191E-2,8.783375E-3,2.891912E-3,-1.9390502E-3,-7.56447E-4,-1.5883873E-3,1.749E-2,1.4922064E-3,6.4232196E-3,-7.324358E-4,1.4689063E-3],"split_indices":[14,14,5,11,18,14,6,560,18,10,709,404,932,10,10,599,0,581,494,530,12,0,965,0,230,0,990,11,18,505,6,0,9,9,0,805,0,653,857,2,449,11,0,178,38,8,124,260,404,18,257,11,566,9,9,0,0,0,0,0,0,0,0,0,0,0,0,0,0,0,0,0,0,0,0,0,0,0,0,0,0,0,0,0,0,0,0,0,0,0,0,0,0,0,0],"split_type":[0,0,0,0,0,0,0,0,0,0,0,0,0,0,0,0,0,0,0,0,0,0,0,0,0,0,0,0,0,0,0,0,0,0,0,0,0,0,0,0,0,0,0,0,0,0,0,0,0,0,0,0,0,0,0,0,0,0,0,0,0,0,0,0,0,0,0,0,0,0,0,0,0,0,0,0,0,0,0,0,0,0,0,0,0,0,0,0,0,0,0,0,0,0,0],"sum_hessian":[1.4778E4,5.698E3,9.08E3,3.882E3,1.816E3,1.912E3,7.168E3,2.469E3,1.413E3,7.82E2,1.034E3,3.56E2,1.556E3,2.398E3,4.77E3,2.464E3,5E0,4.94E2,9.19E2,2.27E2,5.55E2,7E0,1.027E3,6E0,3.5E2,5E0,1.551E3,6.7E2,1.728E3,1.366E3,3.404E3,6E0,2.458E3,4.87E2,7E0,9.1E2,9E0,1.1E1,2.16E2,2.95E2,2.6E2,1.02E3,7E0,3.26E2,2.4E1,1.54E3,1.1E1,2.74E2,3.96E2,1.239E3,4.89E2,1.35E3,1.6E1,2.06E3,1.344E3,2.445E3,1.3E1,2.74E2,2.13E2,9.01E2,9E0,6E0,5E0,5E0,2.11E2,2.67E2,2.8E1,2.49E2,1.1E1,5.22E2,4.98E2,2.34E2,9.2E1,1.9E1,5E0,1.68E2,1.372E3,5E0,6E0,1.4E1,2.6E2,6E0,3.9E2,1.005E3,2.34E2,5.8E1,4.31E2,6.04E2,7.46E2,1E1,6E0,1.668E3,3.92E2,1.056E3,2.88E2],"tree_param":{"num_deleted":"0","num_feature":"1046","num_nodes":"95","size_leaf_vector":"1"}},{"base_weights":[-1.3780604E-4,-3.2795075E-2,2.0455385E-2,-2.0706296E-2,-3.8407438E-2,-3.6638346E-2,3.5672836E-2,-6.8623843E-3,-3.0489864E-2,-4.400669E-2,-3.341449E-2,-8.824069E-3,-4.2737175E-2,7.561772E-2,3.6583361E-3,-2.9632116E-2,6.2605035E-3,-3.151603E-2,1.9241394E-2,-4.414792E-2,-0E0,-2.2055794E-2,-3.7714116E-2,4.0625215E-2,-1.540289E-2,-4.2915583E-2,-0E0,3.0935064E-2,1.1737632E-1,-2.6780417E-2,1.5487303E-2,-3.210419E-2,3.5765686E-3,4.3127092E-4,7.9258114E-2,2.2409267E-3,-3.217541E-2,5.514824E-3,-2.0517673E-2,-0E0,-4.4318803E-2,-2.7408075E-2,-1.5615402E-3,-3.8004335E-2,1.545177E-4,1.1097445E-2,4.4908808E-3,5.569213E-3,-1.8201964E-2,-4.3094333E-2,-0E0,-1.9655697E-2,5.035704E-2,1.413436E-1,7.387121E-2,7.386793E-2,-2.8797792E-2,6.058857E-2,4.6763155E-3,3.6846197E-4,-1.816156E-3,-7.540513E-4,8.374353E-4,8.2495617E-4,1.20322155E-2,-6.921919E-4,-1.7110668E-3,-0E0,-1.520927E-3,-2.2205662E-3,-0E0,-1.4751089E-3,7.1498187E-4,1.0722788E-3,-7.866762E-4,-1.9129919E-3,6.452496E-5,-1.1017232E-3,5.2976278E-3,-1.1833792E-3,5.278E-4,-5.559223E-4,-2.1689055E-3,7.901425E-3,-1.1195926E-3,3.8255851E-3,1.4590365E-3,7.861276E-3,1.8932732E-3,6.545873E-3,2.5332023E-3,1.46007985E-2,-3.152166E-4,-1.9961155E-3,-9.279106E-4,8.465858E-3,1.6209591E-3,7.603116E-4,-1.3211146E-3],"categories":[],"categories_nodes":[],"categories_segments":[],"categories_sizes":[],"default_left":[0,0,0,0,0,0,0,0,0,0,0,0,0,0,0,0,0,0,0,0,0,0,0,0,0,0,0,0,0,0,0,0,0,0,0,0,0,0,0,0,0,0,0,0,0,0,0,0,0,0,0,0,0,0,0,0,0,0,0,0,0,0,0,0,0,0,0,0,0,0,0,0,0,0,0,0,0,0,0,0,0,0,0,0,0,0,0,0,0,0,0,0,0,0,0,0,0,0,0],"id":2,"left_children":[1,3,5,7,9,11,13,15,17,19,21,23,25,27,29,31,33,35,37,39,-1,41,43,45,47,49,-1,51,53,55,57,59,-1,61,63,-1,65,-1,67,-1,69,71,73,75,-1,-1,77,-1,79,81,-1,83,85,87,89,91,93,95,97,-1,-1,-1,-1,-1,-1,-1,-1,-1,-1,-1,-1,-1,-1,-1,-1,-1,-1,-1,-1,-1,-1,-1,-1,-1,-1,-1,-1,-1,-1,-1,-1,-1,-1,-1,-1,-1,-1,-1,-1],"loss_changes":[9.88253E0,3.7893343E-1,7.8284187E0,2.4120706E-1,9.912014E-2,3.1592417E-1,9.090568E0,2.2812018E-1,5.5724263E-2,1.0890245E-2,9.3895435E-2,1.1033822E-1,1.4492273E-2,5.8851967E0,1.4222386E0,6.8127096E-2,1.9496997E-1,5.237353E-2,8.364621E-2,9.654999E-3,0E0,6.0132593E-2,2.123022E-2,2.3188771E-1,1.0165932E-1,1.4482737E-2,0E0,1.5083785E0,1.6718063E0,2.217825E-1,1.3823318E0,4.8793793E-2,0E0,1.1280504E-1,3.14682E-1,0E0,3.334987E-2,0E0,2.4339398E-3,0E0,4.906416E-3,4.1419894E-2,4.0197212E-2,1.860547E-2,0E0,0E0,1.0223081E-1,0E0,4.9029388E-2,8.05068E-3,0E0,1.961117E-1,6.0087395E-1,1.701786E0,7.483561E-1,3.9769003E-1,1.1688995E-1,1.655824E0,7.5277877E-1,0E0,0E0,0E0,0E0,0E0,0E0,0E0,0E0,0E0,0E0,0E0,0E0,0E0,0E0,0E0,0E0,0E0,0E0,0E0,0E0,0E0,0E0,0E0,0E0,0E0,0E0,0E0,0E0,0E0,0E0,0E0,0E0,0E0,0E0,0E0,0E0,0E0,0E0,0E0,0E0],"parents":[2147483647,0,0,1,1,2,2,3,3,4,4,5,5,6,6,7,7,8,8,9,9,10,10,11,11,12,12,13,13,14,14,15,15,16,16,17,17,18,18,19,19,21,21,22,22,23,23,24,24,25,25,27,27,28,28,29,29,30,30,31,31,33,33,34,34,36,36,38,38,40,40,41,41,42,42,43,43,46,46,48,48,49,49,51,51,52,52,53,53,54,54,55,55,56,56,57,57,58,58],"right_children":[2,4,6,8,10,12,14,16,18,20,22,24,26,28,30,32,34,36,38,40,-1,42,44,46,48,50,-1,52,54,56,58,60,-1,62,64,-1,66,-1,68,-1,70,72,74,76,-1,-1,78,-1,80,82,-1,84,86,88,90,92,94,96,98,-1,-1,-1,-1,-1,-1,-1,-1,-1,-1,-1,-1,-1,-1,-1,-1,-1,-1,-1,-1,-1,-1,-1,-1,-1,-1,-1,-1,-1,-1,-1,-1,-1,-1,-1,-1,-1,-1,-1,-1],"split_conditions":[4E0,1E0,7E0,3.3E1,5.8E1,6E0,2.2E1,5.8E1,1.3290863E-1,2.082264E-1,3E1,-1.7604485E-1,2.237854E-1,3.8E1,3.6E1,4.187088E-2,1E0,-3.441345E-1,-9.936371E-2,-1.6307373E-1,-0E0,8.2E1,-5.350723E-2,-2.0292053E-1,-2.2065277E-1,1.8238525E-1,-0E0,3.4E1,3.2E1,-3.264683E-1,3.2E1,-1.3605575E-1,3.5765686E-3,3E1,-7.3561765E-2,2.2409267E-3,-8.9274384E-2,5.514824E-3,3.656006E-3,-0E0,8.621864E-2,2.2817954E-1,-1.5566635E-1,1.9301758E0,1.545177E-4,1.1097445E-2,1.423523E-1,5.569213E-3,6.123535E-1,-5.90387E-1,-0E0,2.4633218E-2,7.702465E-2,2.2E1,-9.143958E-2,-6.516723E-2,5.4E1,2E1,2.2E1,3.6846197E-4,-1.816156E-3,-7.540513E-4,8.374353E-4,8.2495617E-4,1.20322155E-2,-6.921919E-4,-1.7110668E-3,-0E0,-1.520927E-3,-2.2205662E-3,-0E0,-1.4751089E-3,7.1498187E-4,1.0722788E-3,-7.866762E-4,-1.9129919E-3,6.452496E-5,-1.1017232E-3,5.2976278E-3,-1.1833792E-3,5.278E-4,-5.559223E-4,-2.1689055E-3,7.901425E-3,-1.1195926E-3,3.8255851E-3,1.4590365E-3,7.861276E-3,1.8932732E-3,6.545873E-3,2.5332023E-3,1.46007985E-2,-3.152166E-4,-1.9961155E-3,-9.279106E-4,8.465858E-3,1.6209591E-3,7.603116E-4,-1.3211146E-3],"split_indices":[14,1,5,17,11,14,6,11,1038,702,17,686,108,10,10,83,2,709,1026,252,0,12,494,761,180,39,0,10,17,526,17,303,0,17,33,0,294,0,37,0,737,952,235,768,0,0,315,0,117,922,0,126,976,14,165,164,11,14,14,0,0,0,0,0,0,0,0,0,0,0,0,0,0,0,0,0,0,0,0,0,0,0,0,0,0,0,0,0,0,0,0,0,0,0,0,0,0,0,0],"split_type":[0,0,0,0,0,0,0,0,0,0,0,0,0,0,0,0,0,0,0,0,0,0,0,0,0,0,0,0,0,0,0,0,0,0,0,0,0,0,0,0,0,0,0,0,0,0,0,0,0,0,0,0,0,0,0,0,0,0,0,0,0,0,0,0,0,0,0,0,0,0,0,0,0,0,0,0,0,0,0,0,0,0,0,0,0,0,0,0,0,0,0,0,0,0,0,0,0,0,0],"sum_hessian":[1.4691E4,5.683E3,9.008E3,1.809E3,3.874E3,1.894E3,7.114E3,7.54E2,1.055E3,1.813E3,2.061E3,3.44E2,1.55E3,3.163E3,3.951E3,2.78E2,4.76E2,1.036E3,1.9E1,1.807E3,6E0,5.74E2,1.487E3,3.8E1,3.06E2,1.545E3,5E0,1.53E3,1.633E3,1.103E3,2.848E3,2.73E2,5E0,4.43E2,3.3E1,7E0,1.029E3,6E0,1.3E1,9E0,1.798E3,4.51E2,1.23E2,1.479E3,8E0,5E0,3.3E1,5E0,3.01E2,1.54E3,5E0,4.23E2,1.107E3,1.05E3,5.83E2,2E1,1.083E3,5.48E2,2.3E3,2.4E1,2.49E2,2.24E2,2.19E2,2.5E1,8E0,1.09E2,9.2E2,5E0,8E0,1.793E3,5E0,4.32E2,1.9E1,4.4E1,7.9E1,1.472E3,7E0,2.6E1,7E0,2.56E2,4.5E1,1.7E1,1.523E3,5E0,4.18E2,4.92E2,6.15E2,9.09E2,1.41E2,1.66E2,4.17E2,5E0,1.5E1,5.13E2,5.7E2,1.11E2,4.37E2,1.721E3,5.79E2],"tree_param":{"num_deleted":"0","num_feature":"1046","num_nodes":"99","size_leaf_vector":"1"}},{"base_weights":[-3.0848858E-4,-3.1473305E-2,1.9414725E-2,-2.0240324E-2,-3.672069E-2,-3.4862988E-2,3.404027E-2,-8.490303E-3,-3.1832043E-2,-4.0851597E-2,-3.1777833E-2,-5.3157555E-3,-3.986534E-2,8.157125E-2,1.0053642E-2,-2.4142887E-2,4.940381E-3,5.526694E-3,-3.245016E-2,-0E0,-4.1086793E-2,-2.4045935E-2,-3.6182918E-2,4.640793E-2,-1.1901335E-2,4.049243E-4,-4.0080637E-2,1.5412832E-2,1.0664639E-1,-1.1374892E-2,3.0148508E-2,-2.5775751E-2,3.1029552E-3,-1.3197256E-2,1.5269042E-2,2.3376083E-3,-1.1101294E-3,-1.8089278E-2,-3.44765E-2,1.8770663E-3,-1.3327217E-3,-4.125084E-2,-1.2918585E-2,-2.988529E-2,-3.7341383E-3,-3.6521055E-2,4.2077186E-4,7.557983E-3,9.755009E-3,-1.7268123E-2,5.2674383E-2,-4.0268272E-2,-0E0,1.541177E-1,6.414618E-3,5.8645178E-2,1.21677E-1,-3.3159267E-2,-2.9334442E-3,7.839339E-2,1.5919676E-2,-1.455296E-3,5.36303E-4,2.1315636E-3,-8.56536E-4,-7.1687205E-4,1.1898691E-3,-1.0916233E-3,1.9689759E-3,-1.7610127E-3,-6.134541E-5,-2.0672837E-3,-0E0,2.3016413E-5,-1.4674466E-3,1.3958266E-3,-1.5419279E-3,7.809307E-4,-9.257458E-4,-0E0,-1.8423988E-3,-5.371966E-4,3.2297939E-3,-1.1674183E-3,4.6678315E-4,-5.1498844E-4,8.3695445E-3,-1.4936741E-3,-2.075515E-3,3.8016418E-3,2.7712286E-2,1.0827532E-4,7.481185E-3,2.2188823E-3,1.0410091E-2,8.834084E-3,5.1920996E-3,-1.7368427E-3,2.9062342E-3,3.7773035E-4,-1.304903E-3,8.410808E-3,1.6065974E-3,2.6149857E-3,7.300313E-5],"categories":[],"categories_nodes":[],"categories_segments":[],"categories_sizes":[],"default_left":[0,0,0,0,0,0,0,0,0,0,0,0,0,0,0,0,0,0,0,0,0,0,0,0,0,0,0,0,0,0,0,0,0,0,0,0,0,0,0,0,0,0,0,0,0,0,0,0,0,0,0,0,0,0,0,0,0,0,0,0,0,0,0,0,0,0,0,0,0,0,0,0,0,0,0,0,0,0,0,0,0,0,0,0,0,0,0,0,0,0,0,0,0,0,0,0,0,0,0,0,0,0,0,0,0],"id":3,"left_children":[1,3,5,7,9,11,13,15,17,19,21,23,25,27,29,31,33,35,37,39,41,43,45,47,49,-1,51,53,55,57,59,61,-1,63,65,-1,-1,67,69,-1,-1,71,73,75,77,79,-1,-1,81,83,85,87,-1,89,91,93,95,97,99,101,103,-1,-1,-1,-1,-1,-1,-1,-1,-1,-1,-1,-1,-1,-1,-1,-1,-1,-1,-1,-1,-1,-1,-1,-1,-1,-1,-1,-1,-1,-1,-1,-1,-1,-1,-1,-1,-1,-1,-1,-1,-1,-1,-1,-1],"loss_changes":[8.987067E0,3.2765436E-1,7.106777E0,2.426334E-1,7.017279E-2,2.7595282E-1,8.0311985E0,1.925033E-1,2.3839235E-2,2.163124E-2,5.3426743E-2,9.2137545E-2,2.0262003E-2,3.9078646E0,2.021751E0,5.7370335E-2,9.126738E-2,1.8353961E-2,2.0193398E-2,1.34293195E-2,3.638506E-3,7.4095994E-2,1.997757E-2,9.761768E-2,8.401001E-2,0E0,1.4633894E-2,7.967168E-1,1.2107391E0,4.1335973E-1,1.6526337E0,5.2717954E-2,0E0,3.617096E-2,8.031788E-2,0E0,0E0,2.4703916E-2,1.5551686E-2,0E0,0E0,5.871296E-3,6.639314E-3,2.892384E-2,4.377217E-2,1.581037E-2,0E0,0E0,3.3059523E-2,3.930875E-2,1.4746833E-1,1.2408018E-2,0E0,1.1133451E0,3.58123E-1,8.4462965E-1,1.2308731E0,9.0405464E-2,4.002493E-1,2.259992E0,9.803488E-1,0E0,0E0,0E0,0E0,0E0,0E0,0E0,0E0,0E0,0E0,0E0,0E0,0E0,0E0,0E0,0E0,0E0,0E0,0E0,0E0,0E0,0E0,0E0,0E0,0E0,0E0,0E0,0E0,0E0,0E0,0E0,0E0,0E0,0E0,0E0,0E0,0E0,0E0,0E0,0E0,0E0,0E0,0E0,0E0],"parents":[2147483647,0,0,1,1,2,2,3,3,4,4,5,5,6,6,7,7,8,8,9,9,10,10,11,11,12,12,13,13,14,14,15,15,16,16,17,17,18,18,19,19,20,20,21,21,22,22,23,23,24,24,26,26,27,27,28,28,29,29,30,30,31,31,33,33,34,34,37,37,38,38,41,41,42,42,43,43,44,44,45,45,48,48,49,49,50,50,51,51,53,53,54,54,55,55,56,56,57,57,58,58,59,59,60,60],"right_children":[2,4,6,8,10,12,14,16,18,20,22,24,26,28,30,32,34,36,38,40,42,44,46,48,50,-1,52,54,56,58,60,62,-1,64,66,-1,-1,68,70,-1,-1,72,74,76,78,80,-1,-1,82,84,86,88,-1,90,92,94,96,98,100,102,104,-1,-1,-1,-1,-1,-1,-1,-1,-1,-1,-1,-1,-1,-1,-1,-1,-1,-1,-1,-1,-1,-1,-1,-1,-1,-1,-1,-1,-1,-1,-1,-1,-1,-1,-1,-1,-1,-1,-1,-1,-1,-1,-1,-1],"split_conditions":[4E0,1E0,7E0,3.4E1,3.8E1,2E0,2E1,3.8E1,-1.5942231E-1,-1.6307373E-1,3.1E1,-2.8875088E-2,-1.8605423E-1,3.6E1,3.8E1,7.070313E-2,1.3E1,-3.419876E-3,-2.0298919E-1,3.4364365E-2,1.9127674E-1,8.2E1,1.9301758E0,-1.00292966E-1,5.2547358E-2,4.049243E-4,-2.6416627E-1,-5.732689E-2,-1.7827912E-1,3.4E1,3.2E1,1.7050657E-1,3.1029552E-3,1.5920258E-1,-3.5364725E-2,2.3376083E-3,-1.1101294E-3,1E0,-3.6416054E-2,1.8770663E-3,-1.3327217E-3,8.621864E-2,-6.986939E-1,-5.210632E-1,-1.8556213E-1,-2.5991192E-1,4.2077186E-4,7.557983E-3,2.4725036E-1,-4.91961E-2,1.9585501E-2,2.8E1,-0E0,1.4220047E-1,2.0575447E-1,5.1189423E-2,-1.882103E-1,4.924465E-1,8E0,8E0,2.4E1,-1.455296E-3,5.36303E-4,2.1315636E-3,-8.56536E-4,-7.1687205E-4,1.1898691E-3,-1.0916233E-3,1.9689759E-3,-1.7610127E-3,-6.134541E-5,-2.0672837E-3,-0E0,2.3016413E-5,-1.4674466E-3,1.3958266E-3,-1.5419279E-3,7.809307E-4,-9.257458E-4,-0E0,-1.8423988E-3,-5.371966E-4,3.2297939E-3,-1.1674183E-3,4.6678315E-4,-5.1498844E-4,8.3695445E-3,-1.4936741E-3,-2.075515E-3,3.8016418E-3,2.7712286E-2,1.0827532E-4,7.481185E-3,2.2188823E-3,1.0410091E-2,8.834084E-3,5.1920996E-3,-1.7368427E-3,2.9062342E-3,3.7773035E-4,-1.304903E-3,8.410808E-3,1.6065974E-3,2.6149857E-3,7.300313E-5],"split_indices":[14,1,5,17,10,0,6,10,61,252,17,674,932,10,10,449,6,644,805,984,250,12,768,205,300,0,903,653,209,10,17,349,0,353,698,0,0,2,395,0,0,737,963,534,110,475,0,0,410,681,45,8,0,431,1025,711,249,85,0,0,6,0,0,0,0,0,0,0,0,0,0,0,0,0,0,0,0,0,0,0,0,0,0,0,0,0,0,0,0,0,0,0,0,0,0,0,0,0,0,0,0,0,0,0,0],"split_type":[0,0,0,0,0,0,0,0,0,0,0,0,0,0,0,0,0,0,0,0,0,0,0,0,0,0,0,0,0,0,0,0,0,0,0,0,0,0,0,0,0,0,0,0,0,0,0,0,0,0,0,0,0,0,0,0,0,0,0,0,0,0,0,0,0,0,0,0,0,0,0,0,0,0,0,0,0,0,0,0,0,0,0,0,0,0,0,0,0,0,0,0,0,0,0,0,0,0,0,0,0,0,0,0,0],"sum_hessian":[1.4617E4,5.667E3,8.95E3,1.812E3,3.855E3,1.898E3,7.052E3,9.05E2,9.07E2,2.085E3,1.77E3,2.78E2,1.62E3,2.363E3,4.689E3,4.21E2,4.84E2,1.2E1,8.95E2,1.1E1,2.074E3,6.53E2,1.117E3,2.9E1,2.49E2,5E0,1.615E3,6.51E2,1.712E3,2.267E3,2.422E3,4.15E2,6E0,1.72E2,3.12E2,6E0,6E0,1.18E2,7.77E2,5E0,6E0,2.058E3,1.6E1,5.03E2,1.5E2,1.111E3,6E0,6E0,2.3E1,2.32E2,1.7E1,1.609E3,6E0,3.8E1,6.13E2,4.11E2,1.301E3,6.29E2,1.638E3,5.49E2,1.873E3,3.83E2,3.2E1,9E0,1.63E2,6.7E1,2.45E2,1.13E2,5E0,7.57E2,2E1,2.052E3,6E0,6E0,1E1,6E0,4.97E2,6.2E1,8.8E1,8E0,1.103E3,1.6E1,7E0,1.92E2,4E1,1.1E1,6E0,1.83E2,1.426E3,3.3E1,5E0,5.97E2,1.6E1,3.77E2,3.4E1,3.15E2,9.86E2,6.2E2,9E0,1.125E3,5.13E2,1.85E2,3.64E2,5.3E2,1.343E3],"tree_param":{"num_deleted":"0","num_feature":"1046","num_nodes":"105","size_leaf_vector":"1"}},{"base_weights":[3.7820613E-5,-2.967976E-2,1.9061312E-2,-1.7803814E-2,-3.5243157E-2,-3.2815207E-2,3.2599654E-2,-5.751177E-3,-2.6897749E-2,-3.848802E-2,-2.935883E-2,-8.584669E-3,-3.8121402E-2,7.0241414E-2,7.6961666E-3,-2.7004283E-2,7.016312E-3,2.5390417E-3,-2.7641688E-2,-3.8611483E-2,-0E0,-1.9760346E-2,-3.31763E-2,-1.5711509E-2,4.2581253E-2,-4.090391E-2,-3.144675E-2,9.937929E-2,1.1133586E-2,1.6850907E-2,-2.634373E-2,1.5424665E-2,-3.0901749E-2,4.0708752E-3,6.384504E-3,-1.4856599E-3,-2.9838355E-2,-3.4751203E-2,-4.04676E-2,3.795525E-3,-2.1616623E-2,-3.372229E-2,-0E0,-2.0157311E-2,3.683805E-2,1.2805723E-1,-1.5571786E-2,-0E0,-4.1147932E-2,-3.2780148E-2,1.7993853E-3,2.2730123E-2,1.2475349E-1,-2.3608819E-2,3.77797E-2,-3.4254488E-2,2.4320357E-2,-6.5717376E-3,-3.180644E-2,3.8071126E-3,-6.7215104E-4,1.5829569E-3,-1.6258991E-3,-9.1703807E-4,7.395397E-4,-1.1282385E-3,2.7678732E-3,9.0583146E-4,-1.5210031E-3,-0E0,-1.7597547E-3,-8.1637845E-5,-2.0355915E-3,-1.1643339E-3,2.1578285E-3,-1.7069681E-3,1.1552554E-5,1.2860661E-3,-9.29201E-4,-1.4168796E-3,1.8598166E-5,7.318803E-3,-8.6857117E-4,-1.5270081E-4,1.2802551E-2,-1.7671421E-3,9.5804295E-5,-0E0,-2.0646355E-3,-7.817475E-4,-1.8006068E-3,8.5470435E-4,2.2188228E-2,5.2715153E-3,9.4057685E-3,-1.3910562E-3,5.4515684E-3,4.484642E-3,1.1618672E-3,1.3491666E-3,-1.815569E-3,2.0367499E-3,4.338529E-4,7.6804482E-3,-6.384576E-4,-3.9888668E-4,-1.750721E-3],"categories":[],"categories_nodes":[],"categories_segments":[],"categories_sizes":[],"default_left":[0,0,0,0,0,0,0,0,0,0,0,0,0,0,0,0,0,0,0,0,0,0,0,0,0,0,0,0,0,0,0,0,0,0,0,0,0,0,0,0,0,0,0,0,0,0,0,0,0,0,0,0,0,0,0,0,0,0,0,0,0,0,0,0,0,0,0,0,0,0,0,0,0,0,0,0,0,0,0,0,0,0,0,0,0,0,0,0,0,0,0,0,0,0,0,0,0,0,0,0,0,0,0,0,0,0,0],"id":4,"left_children":[1,3,5,7,9,11,13,15,17,19,21,23,25,27,29,31,33,-1,35,37,-1,39,41,43,45,47,49,51,53,55,57,59,61,63,-1,65,67,69,71,-1,73,75,77,79,81,83,85,-1,87,89,-1,91,93,95,97,99,101,103,105,-1,-1,-1,-1,-1,-1,-1,-1,-1,-1,-1,-1,-1,-1,-1,-1,-1,-1,-1,-1,-1,-1,-1,-1,-1,-1,-1,-1,-1,-1,-1,-1,-1,-1,-1,-1,-1,-1,-1,-1,-1,-1,-1,-1,-1,-1,-1,-1],"loss_changes":[8.339284E0,3.743701E-1,6.319839E0,1.986937E-1,6.679964E-2,2.3427463E-1,6.6819696E0,2.1899596E-1,5.953616E-2,1.045537E-2,4.55693E-2,1.21598855E-1,1.9763947E-2,4.8791094E0,1.3388648E0,5.2130103E-2,1.6295624E-1,0E0,5.6462705E-2,8.977652E-3,0E0,6.902407E-2,1.9358397E-2,6.916196E-2,2.1207014E-1,1.2778163E-2,4.2490423E-2,3.6796913E0,8.725141E-1,1.2939018E0,9.413302E-2,4.9360137E-2,2.9426962E-2,1.16918474E-1,0E0,9.9817075E-2,2.8393984E-2,1.4808297E-2,1.1481762E-2,0E0,4.272063E-2,1.7304778E-2,8.400984E-3,4.9661033E-2,1.4607918E-1,3.113659E-1,1.1708486E-2,0E0,4.078269E-3,1.9540608E-2,0E0,1.0734867E0,1.6979637E0,2.2231182E-1,3.8976026E-1,5.620116E-2,7.547717E-1,1.8840414E-1,4.9542427E-2,0E0,0E0,0E0,0E0,0E0,0E0,0E0,0E0,0E0,0E0,0E0,0E0,0E0,0E0,0E0,0E0,0E0,0E0,0E0,0E0,0E0,0E0,0E0,0E0,0E0,0E0,0E0,0E0,0E0,0E0,0E0,0E0,0E0,0E0,0E0,0E0,0E0,0E0,0E0,0E0,0E0,0E0,0E0,0E0,0E0,0E0,0E0,0E0],"parents":[2147483647,0,0,1,1,2,2,3,3,4,4,5,5,6,6,7,7,8,8,9,9,10,10,11,11,12,12,13,13,14,14,15,15,16,16,18,18,19,19,21,21,22,22,23,23,24,24,25,25,26,26,27,27,28,28,29,29,30,30,31,31,32,32,33,33,35,35,36,36,37,37,38,38,40,40,41,41,42,42,43,43,44,44,45,45,46,46,48,48,49,49,51,51,52,52,53,53,54,54,55,55,56,56,57,57,58,58],"right_children":[2,4,6,8,10,12,14,16,18,20,22,24,26,28,30,32,34,-1,36,38,-1,40,42,44,46,48,50,52,54,56,58,60,62,64,-1,66,68,70,72,-1,74,76,78,80,82,84,86,-1,88,90,-1,92,94,96,98,100,102,104,106,-1,-1,-1,-1,-1,-1,-1,-1,-1,-1,-1,-1,-1,-1,-1,-1,-1,-1,-1,-1,-1,-1,-1,-1,-1,-1,-1,-1,-1,-1,-1,-1,-1,-1,-1,-1,-1,-1,-1,-1,-1,-1,-1,-1,-1,-1,-1,-1],"split_conditions":[4E0,1E0,7E0,3.3E1,6E1,6E0,3.2E1,5.8E1,-1.5053578E-1,1.460865E-1,3E1,-2.130127E-2,1E0,2.2E1,2E1,-1.3605575E-1,9.332581E-2,2.5390417E-3,1E0,3.1E1,-0E0,-2.364357E-1,3.2728738E-1,1.8448487E-1,-3.2174587E-3,-3.0034255E-2,1.2475967E-3,5.6E1,5.8E1,5.4E1,1.7402649E-1,3.4072876E-2,-3.3378753E-1,4.313202E-2,6.384504E-3,1.0627365E-1,-1.1972008E-1,-3.145691E-1,2.7224207E-2,3.795525E-3,6.621313E-2,-5.350723E-2,5.420656E-2,5.024948E-2,-3.0973053E-1,-5.6191824E-2,-2.4721002E-2,-0E0,-6.2822264E-1,-8.174515E-2,1.7993853E-3,-2.9093617E-1,-4.5505524E-2,2.4759369E-1,-1.9935532E-1,-1.7977409E-1,3.7E1,-6.955872E-2,-7.4477E-2,3.8071126E-3,-6.7215104E-4,1.5829569E-3,-1.6258991E-3,-9.1703807E-4,7.395397E-4,-1.1282385E-3,2.7678732E-3,9.0583146E-4,-1.5210031E-3,-0E0,-1.7597547E-3,-8.1637845E-5,-2.0355915E-3,-1.1643339E-3,2.1578285E-3,-1.7069681E-3,1.1552554E-5,1.2860661E-3,-9.29201E-4,-1.4168796E-3,1.8598166E-5,7.318803E-3,-8.6857117E-4,-1.5270081E-4,1.2802551E-2,-1.7671421E-3,9.5804295E-5,-0E0,-2.0646355E-3,-7.817475E-4,-1.8006068E-3,8.5470435E-4,2.2188228E-2,5.2715153E-3,9.4057685E-3,-1.3910562E-3,5.4515684E-3,4.484642E-3,1.1618672E-3,1.3491666E-3,-1.815569E-3,2.0367499E-3,4.338529E-4,7.6804482E-3,-6.384576E-4,-3.9888668E-4,-1.750721E-3],"split_indices":[14,1,5,17,11,14,17,11,484,868,17,554,3,14,14,303,911,0,3,17,0,1017,684,997,824,148,1042,11,11,11,913,653,522,910,0,312,87,149,865,0,1029,494,34,178,266,464,631,0,922,879,0,903,554,1041,395,64,17,195,904,0,0,0,0,0,0,0,0,0,0,0,0,0,0,0,0,0,0,0,0,0,0,0,0,0,0,0,0,0,0,0,0,0,0,0,0,0,0,0,0,0,0,0,0,0,0,0,0],"split_type":[0,0,0,0,0,0,0,0,0,0,0,0,0,0,0,0,0,0,0,0,0,0,0,0,0,0,0,0,0,0,0,0,0,0,0,0,0,0,0,0,0,0,0,0,0,0,0,0,0,0,0,0,0,0,0,0,0,0,0,0,0,0,0,0,0,0,0,0,0,0,0,0,0,0,0,0,0,0,0,0,0,0,0,0,0,0,0,0,0,0,0,0,0,0,0,0,0,0,0,0,0,0,0,0,0,0,0],"sum_hessian":[1.4751E4,5.755E3,8.996E3,1.843E3,3.912E3,1.86E3,7.136E3,7.98E2,1.045E3,2.507E3,1.405E3,3.38E2,1.522E3,2.839E3,4.297E3,3.02E2,4.96E2,8E0,1.037E3,2.498E3,9E0,4.09E2,9.96E2,2.99E2,3.9E1,1.06E3,4.62E2,1.9E3,9.39E2,3.389E3,9.08E2,2.3E1,2.79E2,4.86E2,1E1,8.4E1,9.53E2,8.35E2,1.663E3,6E0,4.03E2,9.81E2,1.5E1,2.78E2,2.1E1,1.6E1,2.3E1,5E0,1.055E3,4.55E2,7E0,4.74E2,1.426E3,4.06E2,5.33E2,4.3E2,2.959E3,2.01E2,7.07E2,8E0,1.5E1,5E0,2.74E2,1.54E2,3.32E2,6.3E1,2.1E1,9E0,9.44E2,9E0,8.26E2,1.3E1,1.65E3,3.95E2,8E0,9.72E2,9E0,7E0,8E0,2.02E2,7.6E1,7E0,1.4E1,8E0,8E0,1.3E1,1E1,5E0,1.05E3,7.8E1,3.77E2,4.69E2,5E0,1.096E3,3.3E2,3.95E2,1.1E1,1.14E2,4.19E2,1.2E1,4.18E2,1.44E3,1.519E3,6E0,1.95E2,8.8E1,6.19E2],"tree_param":{"num_deleted":"0","num_feature":"1046","num_nodes":"107","size_leaf_vector":"1"}},{"base_weights":[-1.8860504E-4,-2.8333489E-2,1.7827421E-2,-1.7451031E-2,-3.3637226E-2,-2.8974345E-2,3.1768303E-2,-6.730984E-3,-2.79241E-2,-1.2453081E-2,-3.432158E-2,-2.4628616E-3,-3.366292E-2,6.6898495E-2,4.058152E-3,-9.122612E-3,5.8441024E-2,1.23222E-3,-2.8444845E-2,4.256975E-2,-2.1095155E-2,-2.9366411E-2,-3.686056E-2,-7.3828925E-3,9.635087E-2,-3.6235318E-2,-6.346383E-3,9.022711E-2,4.365884E-2,1.9375276E-2,-1.3219836E-2,4.92778E-3,-1.8450543E-2,9.9435806E-2,-0E0,-1.3236949E-2,-3.0496238E-2,-3.8538812E-4,4.1753515E-3,-2.5539408E-2,2.2504937E-3,-3.2626104E-2,-1.9380486E-2,-3.706429E-2,-0E0,-1.0746969E-2,6.0578934E-3,-3.4709432E-4,1.259491E-2,-3.6660053E-2,-5.364266E-3,6.91107E-2,-2.894681E-2,1.0206035E-1,2.1934444E-2,5.355895E-2,-4.4120126E-3,4.2911116E-3,5.600321E-2,-1.749163E-2,2.9359667E-2,3.1246357E-3,-1.1792823E-7,-1.4116213E-3,-3.686343E-4,-0E0,6.7934566E-3,4.2631567E-4,-6.2412897E-4,3.2493153E-3,-9.4006053E-4,1.1050515E-5,-1.5612914E-3,-1.4873181E-3,9.5558666E-5,-0E0,-1.6809078E-3,-1.0547511E-3,1.9454574E-3,-1.8571373E-3,-0E0,1.4490745E-3,-1.1132088E-3,-1.0572242E-3,5.6691264E-4,-1.8407496E-3,-0E0,-1.6432789E-3,2.9845757E-3,5.53409E-4,1.655691E-2,2.3956706E-3,-1.7481892E-3,6.5741832E-3,2.8909862E-3,4.9681836E-3,1.1140812E-4,2.546228E-3,1.4864131E-2,1.2134427E-2,-5.288411E-4,-1.5941859E-4,2.0452281E-3,5.19022E-3,1.4513998E-3,-4.0635906E-4,-1.4765981E-3,7.7542574E-3,5.5630424E-4],"categories":[],"categories_nodes":[],"categories_segments":[],"categories_sizes":[],"default_left":[0,0,0,0,0,0,0,0,0,0,0,0,0,0,0,0,0,0,0,0,0,0,0,0,0,0,0,0,0,0,0,0,0,0,0,0,0,0,0,0,0,0,0,0,0,0,0,0,0,0,0,0,0,0,0,0,0,0,0,0,0,0,0,0,0,0,0,0,0,0,0,0,0,0,0,0,0,0,0,0,0,0,0,0,0,0,0,0,0,0,0,0,0,0,0,0,0,0,0,0,0,0,0,0,0,0,0,0,0],"id":5,"left_children":[1,3,5,7,9,11,13,15,17,19,21,23,25,27,29,31,33,-1,35,37,39,41,43,45,47,49,51,53,55,57,59,61,63,65,67,69,71,-1,-1,73,-1,75,77,79,81,83,-1,-1,-1,85,87,89,91,93,95,97,99,101,103,105,107,-1,-1,-1,-1,-1,-1,-1,-1,-1,-1,-1,-1,-1,-1,-1,-1,-1,-1,-1,-1,-1,-1,-1,-1,-1,-1,-1,-1,-1,-1,-1,-1,-1,-1,-1,-1,-1,-1,-1,-1,-1,-1,-1,-1,-1,-1,-1,-1],"loss_changes":[7.475097E0,3.2646942E-1,5.863534E0,2.0898932E-1,5.0884724E-2,2.524892E-1,6.7338643E0,1.424282E-1,2.7169168E-2,5.91405E-2,3.9298058E-2,1.4447089E-1,1.1834192E-1,1.637311E0,1.0261222E0,1.20839864E-1,7.857081E-2,0E0,2.4735808E-2,4.1155178E-2,3.2106668E-2,3.596258E-2,1.4963627E-2,1.2041968E-1,2.5118104E-1,1.6501665E-2,2.6231527E-1,1.2137089E0,7.347162E-1,1.1302264E0,3.3000436E-1,1.0841831E-1,5.6047335E-2,7.0583746E-2,1.6722877E-3,4.8833866E-2,2.1641254E-2,0E0,0E0,1.5197091E-2,0E0,3.0248046E-2,3.1619705E-2,7.2903633E-3,1.09878825E-2,6.896164E-2,0E0,0E0,0E0,1.1084795E-2,4.5796305E-2,4.9442005E-1,5.6338646E-2,1.6578751E0,3.359856E-1,7.673869E-1,3.7694427E-1,4.0372264E-1,7.547929E-1,1.825971E-1,3.5761124E-1,0E0,0E0,0E0,0E0,0E0,0E0,0E0,0E0,0E0,0E0,0E0,0E0,0E0,0E0,0E0,0E0,0E0,0E0,0E0,0E0,0E0,0E0,0E0,0E0,0E0,0E0,0E0,0E0,0E0,0E0,0E0,0E0,0E0,0E0,0E0,0E0,0E0,0E0,0E0,0E0,0E0,0E0,0E0,0E0,0E0,0E0,0E0,0E0],"parents":[2147483647,0,0,1,1,2,2,3,3,4,4,5,5,6,6,7,7,8,8,9,9,10,10,11,11,12,12,13,13,14,14,15,15,16,16,18,18,19,19,20,20,21,21,22,22,23,23,24,24,25,25,26,26,27,27,28,28,29,29,30,30,31,31,32,32,33,33,34,34,35,35,36,36,39,39,41,41,42,42,43,43,44,44,45,45,49,49,50,50,51,51,52,52,53,53,54,54,55,55,56,56,57,57,58,58,59,59,60,60],"right_children":[2,4,6,8,10,12,14,16,18,20,22,24,26,28,30,32,34,-1,36,38,40,42,44,46,48,50,52,54,56,58,60,62,64,66,68,70,72,-1,-1,74,-1,76,78,80,82,84,-1,-1,-1,86,88,90,92,94,96,98,100,102,104,106,108,-1,-1,-1,-1,-1,-1,-1,-1,-1,-1,-1,-1,-1,-1,-1,-1,-1,-1,-1,-1,-1,-1,-1,-1,-1,-1,-1,-1,-1,-1,-1,-1,-1,-1,-1,-1,-1,-1,-1,-1,-1,-1,-1,-1,-1,-1,-1,-1],"split_conditions":[4E0,1E0,1.8E1,3.4E1,-3.43E1,2E0,2.2E1,-4.196167E-6,-2.0594397E-1,-2.973442E-1,3.1E1,-9.157753E-2,1.4E1,-9.254456E-3,2.7E1,3.294487E-2,3.371826E-1,1.23222E-3,-7.158051E-2,-1.5622512E-1,-2.3479462E-2,7.8E1,5E1,1.1859808E-1,-1.3403206E-1,7.467117E-2,1.9E1,6E0,1.9760743E-1,3.4E1,4.6E1,-1.6769254E-1,7.8E1,-9.418945E-2,-1.5834197E-1,-2.153122E-1,-3.264183E-1,-3.8538812E-4,4.1753515E-3,1.9884796E-1,2.2504937E-3,-1.683487E-1,2.1588364E-1,1.0592194E-1,1.3642883E-2,5.525527E-2,6.0578934E-3,-3.4709432E-4,1.259491E-2,1.2508412E-1,-3.765564E-2,3.6182404E-2,-8.998909E-2,3.2E1,-2.5165406E-1,3.675232E-2,-3.021614E-1,2.75531E-1,-3.494034E-2,-8.502321E-2,2.1842575E-2,3.1246357E-3,-1.1792823E-7,-1.4116213E-3,-3.686343E-4,-0E0,6.7934566E-3,4.2631567E-4,-6.2412897E-4,3.2493153E-3,-9.4006053E-4,1.1050515E-5,-1.5612914E-3,-1.4873181E-3,9.5558666E-5,-0E0,-1.6809078E-3,-1.0547511E-3,1.9454574E-3,-1.8571373E-3,-0E0,1.4490745E-3,-1.1132088E-3,-1.0572242E-3,5.6691264E-4,-1.8407496E-3,-0E0,-1.6432789E-3,2.9845757E-3,5.53409E-4,1.655691E-2,2.3956706E-3,-1.7481892E-3,6.5741832E-3,2.8909862E-3,4.9681836E-3,1.1140812E-4,2.546228E-3,1.4864131E-2,1.2134427E-2,-5.288411E-4,-1.5941859E-4,2.0452281E-3,5.19022E-3,1.4513998E-3,-4.0635906E-4,-1.4765981E-3,7.7542574E-3,5.5630424E-4],"split_indices":[14,1,9,17,1044,0,6,508,54,786,17,211,9,282,6,192,1004,0,589,86,481,12,9,188,864,717,6,0,416,9,9,336,12,385,335,361,1005,0,0,543,0,188,1025,510,308,178,0,0,0,511,722,907,833,17,638,648,120,401,282,406,301,0,0,0,0,0,0,0,0,0,0,0,0,0,0,0,0,0,0,0,0,0,0,0,0,0,0,0,0,0,0,0,0,0,0,0,0,0,0,0,0,0,0,0,0,0,0,0,0],"split_type":[0,0,0,0,0,0,0,0,0,0,0,0,0,0,0,0,0,0,0,0,0,0,0,0,0,0,0,0,0,0,0,0,0,0,0,0,0,0,0,0,0,0,0,0,0,0,0,0,0,0,0,0,0,0,0,0,0,0,0,0,0,0,0,0,0,0,0,0,0,0,0,0,0,0,0,0,0,0,0,0,0,0,0,0,0,0,0,0,0,0,0,0,0,0,0,0,0,0,0,0,0,0,0,0,0,0,0,0,0],"sum_hessian":[1.4738E4,5.754E3,8.984E3,1.893E3,3.861E3,2.06E3,6.924E3,9.41E2,9.52E2,1.26E2,3.735E3,3.13E2,1.747E3,3.051E3,3.873E3,9.1E2,3.1E1,7E0,9.45E2,1.5E1,1.11E2,1.283E3,2.452E3,3E2,1.3E1,1.593E3,1.54E2,1.519E3,1.532E3,2.056E3,1.817E3,3.59E2,5.51E2,1.8E1,1.3E1,1.19E2,8.26E2,6E0,9E0,1.06E2,5E0,9.58E2,3.25E2,2.436E3,1.6E1,2.94E2,6E0,8E0,5E0,1.568E3,2.5E1,3.4E1,1.2E2,1.293E3,2.26E2,1.272E3,2.6E2,1.459E3,5.97E2,1.654E3,1.63E2,2.9E1,3.3E2,2.87E2,2.64E2,5E0,1.3E1,7E0,6E0,6E0,1.13E2,1.6E1,8.1E2,9.5E1,1.1E1,2.9E1,9.29E2,3.18E2,7E0,2.431E3,5E0,5E0,1.1E1,2.03E2,9.1E1,1.563E3,5E0,1.9E1,6E0,2.9E1,5E0,7E0,1.13E2,7.74E2,5.19E2,4.4E1,1.82E2,1.26E3,1.2E1,5E0,2.55E2,1.21E3,2.49E2,2.13E2,3.84E2,9.36E2,7.18E2,1.9E1,1.44E2],"tree_param":{"num_deleted":"0","num_feature":"1046","num_nodes":"109","size_leaf_vector":"1"}},{"base_weights":[5.500958E-4,1.2072524E-2,-3.163546E-2,3.782969E-2,-4.523622E-3,-3.6067564E-2,-2.771613E-2,-2.5773782E-2,5.439855E-2,-2.7185455E-2,4.4939867E-3,-3.6266904E-2,-0E0,-2.0204268E-2,-3.177522E-2,-9.046848E-3,-3.1464554E-2,1.8272975E-2,8.738518E-2,-2.8120851E-2,7.9747075E-3,1.2718858E-2,-2.4915628E-2,-0E0,-3.6425866E-2,-9.3740475E-4,9.169122E-4,-2.5314452E-2,-3.848239E-3,9.9377336E-5,-3.2080602E-2,-1.692414E-2,6.1295126E-2,1.5015564E-2,-3.2369107E-2,3.546831E-2,-1.7812328E-2,1.09164536E-1,3.9059356E-2,-3.0053455E-2,2.6323594E-2,-2.3008574E-2,1.9000644E-2,-3.5867613E-2,-1.2732807E-2,-0E0,-3.6582954E-2,2.0250503E-3,-2.6525024E-2,3.4673193E-3,-7.305706E-3,-1.1375233E-2,-3.2786217E-2,-2.4744266E-4,-1.5165441E-3,-2.5342472E-4,8.441399E-3,3.0414152E-3,-8.3165517E-4,-1.6564673E-3,-0E0,4.3291054E-4,3.692956E-3,3.7651837E-3,-1.0846792E-3,3.5790843E-3,9.176868E-3,2.3995258E-4,3.2483868E-3,-1.5832452E-3,-1.7046169E-4,6.7480453E-3,-1.069127E-3,-5.9357E-4,-1.5331911E-3,1.5412502E-3,-1.4587285E-4,2.8496928E-5,-1.8234367E-3,-7.523963E-4,2.7689429E-3,-8.662767E-4,1.5963333E-4,-1.8336853E-3,-0E0,1.7690401E-3,-1.3669939E-3,5.552747E-4,-7.1422406E-4,1.8631191E-3,-1.1242566E-3,-1.6523721E-3,1.895352E-5],"categories":[],"categories_nodes":[],"categories_segments":[],"categories_sizes":[],"default_left":[0,0,0,0,0,0,0,0,0,0,0,0,0,0,0,0,0,0,0,0,0,0,0,0,0,0,0,0,0,0,0,0,0,0,0,0,0,0,0,0,0,0,0,0,0,0,0,0,0,0,0,0,0,0,0,0,0,0,0,0,0,0,0,0,0,0,0,0,0,0,0,0,0,0,0,0,0,0,0,0,0,0,0,0,0,0,0,0,0,0,0,0,0],"id":6,"left_children":[1,3,5,7,9,11,13,15,17,19,21,23,25,27,29,31,33,35,37,39,-1,41,43,-1,45,-1,-1,47,49,-1,51,53,55,57,59,61,63,65,67,69,71,73,75,77,79,81,83,-1,85,-1,87,89,91,-1,-1,-1,-1,-1,-1,-1,-1,-1,-1,-1,-1,-1,-1,-1,-1,-1,-1,-1,-1,-1,-1,-1,-1,-1,-1,-1,-1,-1,-1,-1,-1,-1,-1,-1,-1,-1,-1,-1,-1],"loss_changes":[5.4637275E0,4.643685E0,6.0073137E-2,4.489396E0,1.3511378E0,1.2902737E-2,5.7490468E-2,7.933551E-2,4.0132675E0,3.199811E-1,1.1405776E0,1.0150433E-2,4.1266936E-3,5.8837265E-2,1.6868591E-2,1.2349014E-1,2.9591799E-2,1.004503E0,1.837533E0,1.9834566E-1,0E0,8.284152E-1,1.3197875E-1,0E0,7.1344376E-3,0E0,0E0,4.4214636E-2,4.0360928E-2,0E0,1.4627695E-2,2.9716227E-2,1.7422956E-1,2.1380318E-2,1.7650008E-2,1.1191794E0,1.8420412E-1,3.3546534E0,4.8179507E-1,7.418454E-2,3.4075165E-1,4.2274266E-2,8.1718504E-1,1.5372753E-2,7.453975E-2,1.8622032E-3,3.7572384E-3,0E0,2.7957946E-2,0E0,2.3090355E-2,2.6378075E-2,1.43687725E-2,0E0,0E0,0E0,0E0,0E0,0E0,0E0,0E0,0E0,0E0,0E0,0E0,0E0,0E0,0E0,0E0,0E0,0E0,0E0,0E0,0E0,0E0,0E0,0E0,0E0,0E0,0E0,0E0,0E0,0E0,0E0,0E0,0E0,0E0,0E0,0E0,0E0,0E0,0E0,0E0],"parents":[2147483647,0,0,1,1,2,2,3,3,4,4,5,5,6,6,7,7,8,8,9,9,10,10,11,11,12,12,13,13,14,14,15,15,16,16,17,17,18,18,19,19,21,21,22,22,24,24,27,27,28,28,30,30,31,31,32,32,33,33,34,34,35,35,36,36,37,37,38,38,39,39,40,40,41,41,42,42,43,43,44,44,45,45,46,46,48,48,50,50,51,51,52,52],"right_children":[2,4,6,8,10,12,14,16,18,20,22,24,26,28,30,32,34,36,38,40,-1,42,44,-1,46,-1,-1,48,50,-1,52,54,56,58,60,62,64,66,68,70,72,74,76,78,80,82,84,-1,86,-1,88,90,92,-1,-1,-1,-1,-1,-1,-1,-1,-1,-1,-1,-1,-1,-1,-1,-1,-1,-1,-1,-1,-1,-1,-1,-1,-1,-1,-1,-1,-1,-1,-1,-1,-1,-1,-1,-1,-1,-1,-1,-1],"split_conditions":[1E0,3.2E1,5.8E1,7E0,3.6E1,5E1,3.1E1,2E0,3.8E1,2.2810555E-1,6E0,-1.6307373E-1,-2.580819E-2,4.2E1,-3.8332215E-1,5.85474E-2,-6.399135E-2,7E0,6E0,4.1480638E-2,7.9747075E-3,7E0,2.4E1,-0E0,-1.8869019E-1,-9.3740475E-4,9.169122E-4,-3.2452163E-1,-1.2954131E-1,9.9377336E-5,-3.8838207E1,6.722188E-2,-5.9541322E-2,1.12493895E-1,-1.944009E-1,3E0,-1.714325E-2,3E0,3E1,6.261978E-2,-4.3585587E-2,2E0,3.9E1,-2.6231194E-2,6.3632205E-2,-1.1862411E-1,2.082264E-1,2.0250503E-3,-5.210632E-1,3.4673193E-3,-1.3436022E-1,1.2220383E-1,1.3847561E-1,-2.4744266E-4,-1.5165441E-3,-2.5342472E-4,8.441399E-3,3.0414152E-3,-8.3165517E-4,-1.6564673E-3,-0E0,4.3291054E-4,3.692956E-3,3.7651837E-3,-1.0846792E-3,3.5790843E-3,9.176868E-3,2.3995258E-4,3.2483868E-3,-1.5832452E-3,-1.7046169E-4,6.7480453E-3,-1.069127E-3,-5.9357E-4,-1.5331911E-3,1.5412502E-3,-1.4587285E-4,2.8496928E-5,-1.8234367E-3,-7.523963E-4,2.7689429E-3,-8.662767E-4,1.5963333E-4,-1.8336853E-3,-0E0,1.7690401E-3,-1.3669939E-3,5.552747E-4,-7.1422406E-4,1.8631191E-3,-1.1242566E-3,-1.6523721E-3,1.895352E-5],"split_indices":[1,17,11,5,10,9,17,0,10,678,0,252,672,8,826,398,573,0,0,344,0,5,9,0,278,0,0,725,765,0,1045,56,287,59,844,0,171,0,9,275,426,0,17,34,36,329,702,0,534,0,590,276,909,0,0,0,0,0,0,0,0,0,0,0,0,0,0,0,0,0,0,0,0,0,0,0,0,0,0,0,0,0,0,0,0,0,0,0,0,0,0,0,0],"split_type":[0,0,0,0,0,0,0,0,0,0,0,0,0,0,0,0,0,0,0,0,0,0,0,0,0,0,0,0,0,0,0,0,0,0,0,0,0,0,0,0,0,0,0,0,0,0,0,0,0,0,0,0,0,0,0,0,0,0,0,0,0,0,0,0,0,0,0,0,0,0,0,0,0,0,0,0,0,0,0,0,0,0,0,0,0,0,0,0,0,0,0,0,0],"sum_hessian":[1.4736E4,1.0854E4,3.882E3,4.255E3,6.599E3,1.806E3,2.076E3,8.78E2,3.377E3,1.881E3,4.718E3,1.796E3,1E1,7.39E2,1.337E3,2.28E2,6.5E2,1.614E3,1.763E3,1.873E3,8E0,3.69E3,1.028E3,8E0,1.788E3,5E0,5E0,5.58E2,1.81E2,9E0,1.328E3,2.07E2,2.1E1,1E1,6.4E2,1.095E3,5.19E2,1.213E3,5.5E2,1.811E3,6.2E1,5.49E2,3.141E3,5.36E2,4.92E2,1E1,1.778E3,8E0,5.5E2,6E0,1.75E2,4.9E1,1.279E3,1.14E2,9.3E1,1.3E1,8E0,5E0,5E0,6.27E2,1.3E1,6.47E2,4.48E2,1.9E1,5E2,8.08E2,4.05E2,2.39E2,3.11E2,1.704E3,1.07E2,1.9E1,4.3E1,2.3E2,3.19E2,2.043E3,1.098E3,6E0,5.3E2,4.78E2,1.4E1,5E0,5E0,1.772E3,6E0,5E0,5.45E2,4.4E1,1.31E2,7E0,4.2E1,1.272E3,7E0],"tree_param":{"num_deleted":"0","num_feature":"1046","num_nodes":"93","size_leaf_vector":"1"}},{"base_weights":[-2.9117143E-4,-2.6130786E-2,1.633131E-2,-1.7138664E-2,-3.033727E-2,-2.717296E-2,2.8033597E-2,-2.8573142E-2,-1.0285392E-2,-3.4447134E-2,-2.6712172E-2,1.6532545E-3,-3.2443028E-2,5.1170085E-2,-3.2009627E-3,-3.0169427E-2,3.4106456E-2,-1.3705329E-2,4.197941E-2,-3.4621317E-2,-0E0,-1.9318797E-2,-3.0518023E-2,4.7864385E-2,-5.901673E-3,4.987955E-4,-3.264357E-2,2.4214596E-3,6.99997E-2,-2.1379946E-2,8.968915E-3,1.5078951E-3,-3.0947175E-2,-1.2493415E-3,7.6713203E-3,-1.4938907E-3,-2.2951473E-2,1.6350036E-2,7.8079435E-3,-4.870712E-3,-3.486083E-2,-2.6308373E-2,-9.880203E-3,-3.077385E-2,2.3355121E-4,1.4524712E-1,1.0922735E-2,2.6696477E-2,-1.8283054E-2,-3.2816347E-2,1.1163756E-4,-2.2030788E-2,2.683048E-2,9.195798E-2,4.1095316E-2,-1.133324E-2,-3.031785E-2,3.7022714E-2,-6.4040637E-3,1.0747667E-3,-1.8348008E-4,-1.5734824E-3,-0E0,-8.456364E-4,7.2486297E-4,-4.294187E-4,-1.2870524E-3,4.377993E-3,-2.7638403E-4,1.5244059E-3,-1.3409723E-3,-0E0,-1.7476557E-3,2.3658173E-3,-1.3881427E-3,-6.654499E-4,1.3350239E-3,-1.5529412E-3,-0E0,9.76467E-3,2.7163147E-3,3.9789765E-3,-1.7890075E-4,4.5882715E-4,9.330986E-3,-1.3928869E-3,4.4363408E-4,-1.6484434E-3,-0E0,-1.2273791E-3,7.2041946E-3,5.5294076E-4,4.6707937E-3,5.598363E-3,3.9534984E-4,4.0360373E-3,1.4513383E-3,8.05352E-4,-9.7468693E-4,-1.6991807E-3,-1.7958587E-4,-4.728654E-4,2.6699423E-3,-1.0889753E-3,2.985476E-4],"categories":[],"categories_nodes":[],"categories_segments":[],"categories_sizes":[],"default_left":[0,0,0,0,0,0,0,0,0,0,0,0,0,0,0,0,0,0,0,0,0,0,0,0,0,0,0,0,0,0,0,0,0,0,0,0,0,0,0,0,0,0,0,0,0,0,0,0,0,0,0,0,0,0,0,0,0,0,0,0,0,0,0,0,0,0,0,0,0,0,0,0,0,0,0,0,0,0,0,0,0,0,0,0,0,0,0,0,0,0,0,0,0,0,0,0,0,0,0,0,0,0,0,0,0],"id":7,"left_children":[1,3,5,7,9,11,13,15,17,19,21,23,25,27,29,31,33,35,37,39,-1,41,43,45,47,-1,49,51,53,55,57,59,61,-1,-1,63,65,67,-1,69,71,73,75,77,-1,79,81,83,85,87,-1,89,91,93,95,97,99,101,103,-1,-1,-1,-1,-1,-1,-1,-1,-1,-1,-1,-1,-1,-1,-1,-1,-1,-1,-1,-1,-1,-1,-1,-1,-1,-1,-1,-1,-1,-1,-1,-1,-1,-1,-1,-1,-1,-1,-1,-1,-1,-1,-1,-1,-1,-1],"loss_changes":[6.340241E0,2.1336246E-1,4.572052E0,1.409496E-1,5.150056E-2,2.920773E-1,5.119933E0,6.947279E-2,2.0598274E-1,1.11682415E-2,5.3657413E-2,1.064223E-1,1.6296744E-2,3.726677E0,6.6757447E-1,1.9571304E-2,1.2949371E-1,1.2126909E-1,1.8504027E-1,8.79693E-3,0E0,4.40827E-2,1.516819E-2,1.374881E-1,1.00549296E-1,0E0,1.2809038E-2,6.790988E-1,1.8444624E0,1.04234815E-1,7.80017E-1,3.3102415E-3,1.16199255E-2,0E0,0E0,1.18344784E-1,2.114746E-2,1.0060382E-1,0E0,1.5196357E-2,3.031969E-3,4.3370515E-2,3.8776778E-2,1.4528751E-2,0E0,1.4481217E-2,4.0738862E-2,1.6643144E-1,4.9987063E-2,1.0629058E-2,0E0,2.2821435E-1,5.881623E-1,2.7856436E0,5.9402347E-1,1.2985815E-1,5.8332384E-2,4.9204338E-1,2.228062E-1,0E0,0E0,0E0,0E0,0E0,0E0,0E0,0E0,0E0,0E0,0E0,0E0,0E0,0E0,0E0,0E0,0E0,0E0,0E0,0E0,0E0,0E0,0E0,0E0,0E0,0E0,0E0,0E0,0E0,0E0,0E0,0E0,0E0,0E0,0E0,0E0,0E0,0E0,0E0,0E0,0E0,0E0,0E0,0E0,0E0,0E0],"parents":[2147483647,0,0,1,1,2,2,3,3,4,4,5,5,6,6,7,7,8,8,9,9,10,10,11,11,12,12,13,13,14,14,15,15,16,16,17,17,18,18,19,19,21,21,22,22,23,23,24,24,26,26,27,27,28,28,29,29,30,30,31,31,32,32,35,35,36,36,37,37,39,39,40,40,41,41,42,42,43,43,45,45,46,46,47,47,48,48,49,49,51,51,52,52,53,53,54,54,55,55,56,56,57,57,58,58],"right_children":[2,4,6,8,10,12,14,16,18,20,22,24,26,28,30,32,34,36,38,40,-1,42,44,46,48,-1,50,52,54,56,58,60,62,-1,-1,64,66,68,-1,70,72,74,76,78,-1,80,82,84,86,88,-1,90,92,94,96,98,100,102,104,-1,-1,-1,-1,-1,-1,-1,-1,-1,-1,-1,-1,-1,-1,-1,-1,-1,-1,-1,-1,-1,-1,-1,-1,-1,-1,-1,-1,-1,-1,-1,-1,-1,-1,-1,-1,-1,-1,-1,-1,-1,-1,-1,-1,-1,-1],"split_conditions":[4E0,1E0,7E0,5.8E1,5.8E1,2E0,2.4E1,1.5979767E-3,1E0,1.460865E-1,3.1E1,-1.7943116E-1,-1.8605423E-1,3.6E1,3E1,-5.5534504E-2,-1.3756637E-1,3.3E1,1.6275959E-1,2.7224207E-2,-0E0,2.8E1,1.9301758E0,-1.5508651E-3,-7.930573E-2,4.987955E-4,2.237854E-1,3.4E1,3.2E1,2E1,2.7E1,1.2869874E-1,2.23732E-3,-1.2493415E-3,7.6713203E-3,3E1,-5.311773E-2,-1.2982635E-1,7.8079435E-3,5.0979614E-2,-9.976015E-2,-3.2452163E-1,1.7303772E-1,-5.350723E-2,2.3355121E-4,-1.0918808E-2,6.735458E-2,-1.8844604E-1,1.1920776E-1,1.2508412E-1,1.1163756E-4,3.3896178E-1,-1.0300064E-2,8E0,-2.1009298E-1,-6.482483E-1,3.0192947E-2,3.6E1,3.8E1,1.0747667E-3,-1.8348008E-4,-1.5734824E-3,-0E0,-8.456364E-4,7.2486297E-4,-4.294187E-4,-1.2870524E-3,4.377993E-3,-2.7638403E-4,1.5244059E-3,-1.3409723E-3,-0E0,-1.7476557E-3,2.3658173E-3,-1.3881427E-3,-6.654499E-4,1.3350239E-3,-1.5529412E-3,-0E0,9.76467E-3,2.7163147E-3,3.9789765E-3,-1.7890075E-4,4.5882715E-4,9.330986E-3,-1.3928869E-3,4.4363408E-4,-1.6484434E-3,-0E0,-1.2273791E-3,7.2041946E-3,5.5294076E-4,4.6707937E-3,5.598363E-3,3.9534984E-4,4.0360373E-3,1.4513383E-3,8.05352E-4,-9.7468693E-4,-1.6991807E-3,-1.7958587E-4,-4.728654E-4,2.6699423E-3,-1.0889753E-3,2.985476E-4],"split_indices":[14,1,5,11,11,0,6,554,2,868,17,310,932,10,9,885,55,17,1025,865,0,9,768,73,124,0,108,10,17,14,6,976,183,0,0,17,316,76,0,640,351,725,1025,494,0,362,529,566,269,511,0,446,862,0,567,917,560,10,10,0,0,0,0,0,0,0,0,0,0,0,0,0,0,0,0,0,0,0,0,0,0,0,0,0,0,0,0,0,0,0,0,0,0,0,0,0,0,0,0,0,0,0,0,0,0],"split_type":[0,0,0,0,0,0,0,0,0,0,0,0,0,0,0,0,0,0,0,0,0,0,0,0,0,0,0,0,0,0,0,0,0,0,0,0,0,0,0,0,0,0,0,0,0,0,0,0,0,0,0,0,0,0,0,0,0,0,0,0,0,0,0,0,0,0,0,0,0,0,0,0,0,0,0,0,0,0,0,0,0,0,0,0,0,0,0,0,0,0,0,0,0,0,0,0,0,0,0,0,0,0,0,0,0],"sum_hessian":[1.4757E4,5.779E3,8.978E3,1.851E3,3.928E3,1.901E3,7.077E3,6.87E2,1.164E3,1.824E3,2.104E3,2.91E2,1.61E3,4.067E3,3.01E3,6.72E2,1.5E1,1.095E3,6.9E1,1.815E3,9E0,7.26E2,1.378E3,4.2E1,2.49E2,5E0,1.605E3,1.135E3,2.932E3,1.21E3,1.8E3,1.3E1,6.59E2,1E1,5E0,4.77E2,6.18E2,5.8E1,1.1E1,1.8E1,1.797E3,4.1E2,3.16E2,1.371E3,7E0,1E1,3.2E1,6.6E1,1.83E2,1.6E3,5E0,5.65E2,5.7E2,1.663E3,1.269E3,5.76E2,6.34E2,6.39E2,1.161E3,6E0,7E0,6.49E2,1E1,2.46E2,2.31E2,1.07E2,5.11E2,1.4E1,4.4E1,5E0,1.3E1,7E0,1.79E3,6E0,4.04E2,2.92E2,2.4E1,1.361E3,1E1,5E0,5E0,6E0,2.6E1,6.1E1,5E0,1.38E2,4.5E1,1.595E3,5E0,5.58E2,7E0,4.63E2,1.07E2,1.342E3,3.21E2,2.93E2,9.76E2,1.29E2,4.47E2,5.54E2,8E1,1.65E2,4.74E2,5.21E2,6.4E2],"tree_param":{"num_deleted":"0","num_feature":"1046","num_nodes":"105","size_leaf_vector":"1"}},{"base_weights":[6.1094295E-4,1.1184705E-2,-2.855118E-2,3.6359534E-2,-5.2960357E-3,-3.379102E-2,-2.5777139E-2,-2.4662426E-2,5.2106168E-2,-2.5550848E-2,2.7872608E-3,-0E0,-3.3941533E-2,-1.9433739E-2,-2.9064719E-2,-1.5761452E-2,-3.2067176E-2,1.6437823E-2,8.525042E-2,-2.7338378E-2,2.5975497E-2,-2.562971E-2,9.242686E-3,-0E0,-3.407249E-2,-6.6457E-3,-2.2844994E-2,-2.9298393E-2,-0E0,6.335781E-3,-2.2596216E-2,-3.277674E-2,2.6311007E-4,-2.1219525E-2,3.2040734E-2,6.4974494E-2,1.2714915E-1,-2.8104417E-2,5.3581562E-2,1.4405622E-1,-1.6987788E-2,-2.6259316E-2,2.574214E-3,2.8914867E-2,-5.571863E-3,-0E0,-3.4187164E-2,3.8497195E-2,-1.409905E-2,-2.5951093E-2,-9.725592E-3,-2.9503461E-2,2.2333344E-4,1.617581E-3,-7.8961777E-4,4.3100626E-3,-5.040219E-4,-5.4261163E-5,-1.2778508E-3,-0E0,-1.6745881E-3,9.115907E-3,-1.22025E-3,1.5302159E-2,1.4771643E-3,1.6211595E-2,3.0982855E-3,4.7958936E-3,9.31023E-3,-1.4797972E-3,1.2018355E-4,-8.210723E-4,9.482841E-3,-0E0,1.0866418E-2,-1.4214603E-3,1.7449185E-3,-9.5255126E-4,-1.6151471E-3,6.081191E-4,2.3900492E-3,-3.9026773E-4,1.8858766E-3,-1.716758E-3,-7.1279035E-5,5.6049824E-3,-8.142291E-4,3.903208E-5,-1.2135053E-3,-1.3353463E-3,1.5559042E-3,-6.9586147E-4,3.5119553E-3,-1.522362E-3,-8.427593E-4],"categories":[],"categories_nodes":[],"categories_segments":[],"categories_sizes":[],"default_left":[0,0,0,0,0,0,0,0,0,0,0,0,0,0,0,0,0,0,0,0,0,0,0,0,0,0,0,0,0,0,0,0,0,0,0,0,0,0,0,0,0,0,0,0,0,0,0,0,0,0,0,0,0,0,0,0,0,0,0,0,0,0,0,0,0,0,0,0,0,0,0,0,0,0,0,0,0,0,0,0,0,0,0,0,0,0,0,0,0,0,0,0,0,0,0],"id":8,"left_children":[1,3,5,7,9,11,13,15,17,19,21,-1,23,25,27,29,31,33,35,37,39,41,43,-1,45,47,49,51,53,55,57,59,-1,61,63,65,67,69,71,73,75,77,-1,79,81,-1,83,85,87,89,91,93,-1,-1,-1,-1,-1,-1,-1,-1,-1,-1,-1,-1,-1,-1,-1,-1,-1,-1,-1,-1,-1,-1,-1,-1,-1,-1,-1,-1,-1,-1,-1,-1,-1,-1,-1,-1,-1,-1,-1,-1,-1,-1,-1],"loss_changes":[4.522743E0,4.472185E0,4.989004E-2,4.101267E0,1.067874E0,6.697893E-3,4.8139572E-2,5.2316546E-2,3.9972725E0,1.721617E-1,8.5142773E-1,0E0,3.7103891E-3,3.5723805E-2,1.4314175E-2,6.2936105E-2,1.5373141E-2,9.6301705E-1,1.4643106E0,1.1053634E-1,3.246153E-1,4.0486574E-2,1.107615E0,0E0,3.3359528E-3,6.37138E-2,2.4542034E-2,1.4191866E-2,7.7761547E-3,1.3041231E-1,1.7242923E-2,1.301232E-2,0E0,2.9857618E-1,7.505113E-1,8.672075E-1,1.0052223E0,8.40143E-2,1.7284882E-1,1.6676044E-1,2.7059523E-2,3.1409502E-2,0E0,5.097697E-1,2.0624268E-1,0E0,2.755642E-3,1.16240904E-1,2.8096057E-2,2.4372905E-2,4.2606145E-2,1.4596224E-2,0E0,0E0,0E0,0E0,0E0,0E0,0E0,0E0,0E0,0E0,0E0,0E0,0E0,0E0,0E0,0E0,0E0,0E0,0E0,0E0,0E0,0E0,0E0,0E0,0E0,0E0,0E0,0E0,0E0,0E0,0E0,0E0,0E0,0E0,0E0,0E0,0E0,0E0,0E0,0E0,0E0,0E0,0E0],"parents":[2147483647,0,0,1,1,2,2,3,3,4,4,5,5,6,6,7,7,8,8,9,9,10,10,12,12,13,13,14,14,15,15,16,16,17,17,18,18,19,19,20,20,21,21,22,22,24,24,25,25,26,26,27,27,28,28,29,29,30,30,31,31,33,33,34,34,35,35,36,36,37,37,38,38,39,39,40,40,41,41,43,43,44,44,46,46,47,47,48,48,49,49,50,50,51,51],"right_children":[2,4,6,8,10,12,14,16,18,20,22,-1,24,26,28,30,32,34,36,38,40,42,44,-1,46,48,50,52,54,56,58,60,-1,62,64,66,68,70,72,74,76,78,-1,80,82,-1,84,86,88,90,92,94,-1,-1,-1,-1,-1,-1,-1,-1,-1,-1,-1,-1,-1,-1,-1,-1,-1,-1,-1,-1,-1,-1,-1,-1,-1,-1,-1,-1,-1,-1,-1,-1,-1,-1,-1,-1,-1,-1,-1,-1,-1,-1,-1],"split_conditions":[1E0,3.2E1,3.6E1,7E0,3.6E1,-2.3565999E-1,3.1E1,1E0,3.8E1,4.459076E-2,7E0,-0E0,-9.874687E-2,-1.5388946E-1,-5.350723E-2,-1.449646E-1,1.1394043E-1,3.4E1,-1.0415373E-1,-9.326744E-3,1.2721634E-1,5.9078336E-2,2.4E1,-0E0,-1.6133423E-1,3.3061218E-2,8.2E1,1.9301758E0,1.2423706E-2,-1.5523529E-1,-1.1638794E-1,-1.4548492E-1,2.6311007E-4,-1.9914055E-2,-2.170082E-1,-3.0236816E-1,1.4949036E-1,1.0349655E-1,1.08338356E-1,2.9536134E-1,-5.947571E-2,1E0,2.574214E-3,-1.8465042E-2,1.22291565E-1,-0E0,2.3675689E-1,5.268097E-4,2.4698018E-3,1.9004395E0,-2.447052E-2,4.6E1,2.2333344E-4,1.617581E-3,-7.8961777E-4,4.3100626E-3,-5.040219E-4,-5.4261163E-5,-1.2778508E-3,-0E0,-1.6745881E-3,9.115907E-3,-1.22025E-3,1.5302159E-2,1.4771643E-3,1.6211595E-2,3.0982855E-3,4.7958936E-3,9.31023E-3,-1.4797972E-3,1.2018355E-4,-8.210723E-4,9.482841E-3,-0E0,1.0866418E-2,-1.4214603E-3,1.7449185E-3,-9.5255126E-4,-1.6151471E-3,6.081191E-4,2.3900492E-3,-3.9026773E-4,1.8858766E-3,-1.716758E-3,-7.1279035E-5,5.6049824E-3,-8.142291E-4,3.903208E-5,-1.2135053E-3,-1.3353463E-3,1.5559042E-3,-6.9586147E-4,3.5119553E-3,-1.522362E-3,-8.427593E-4],"split_indices":[16,17,10,5,10,473,17,2,10,344,5,0,220,473,494,341,771,10,479,586,78,971,6,0,465,642,12,768,972,208,427,285,0,579,35,399,231,920,312,327,807,2,0,113,73,0,775,537,946,768,158,9,0,0,0,0,0,0,0,0,0,0,0,0,0,0,0,0,0,0,0,0,0,0,0,0,0,0,0,0,0,0,0,0,0,0,0,0,0,0,0,0,0,0,0],"split_type":[0,0,0,0,0,0,0,0,0,0,0,0,0,0,0,0,0,0,0,0,0,0,0,0,0,0,0,0,0,0,0,0,0,0,0,0,0,0,0,0,0,0,0,0,0,0,0,0,0,0,0,0,0,0,0,0,0,0,0,0,0,0,0,0,0,0,0,0,0,0,0,0,0,0,0,0,0,0,0,0,0,0,0,0,0,0,0,0,0,0,0,0,0,0,0],"sum_hessian":[1.4671E4,1.077E4,3.901E3,4.263E3,6.507E3,1.334E3,2.567E3,8.73E2,3.39E3,1.859E3,4.648E3,6E0,1.328E3,8.89E2,1.678E3,4.04E2,4.69E2,1.635E3,1.755E3,1.799E3,6E1,8.57E2,3.791E3,7E0,1.321E3,1.94E2,6.95E2,1.668E3,1E1,9.2E1,3.12E2,4.63E2,6E0,4.77E2,1.158E3,1.186E3,5.69E2,1.784E3,1.5E1,1.6E1,4.4E1,8.52E2,5E0,1.631E3,2.16E3,6E0,1.315E3,2.5E1,1.69E2,5.55E2,1.4E2,1.661E3,7E0,5E0,5E0,1.6E1,7.6E1,4.2E1,2.7E2,8E0,4.55E2,6E0,4.71E2,9E0,1.149E3,1.2E1,1.174E3,3.75E2,1.94E2,1.704E3,8E1,1E1,5E0,6E0,1E1,3.8E1,6E0,3.98E2,4.54E2,8.68E2,7.63E2,2.057E3,1.03E2,1.306E3,9E0,1.1E1,1.4E1,6.5E1,1.04E2,5.5E2,5E0,1.35E2,5E0,1.537E3,1.24E2],"tree_param":{"num_deleted":"0","num_feature":"1046","num_nodes":"95","size_leaf_vector":"1"}},{"base_weights":[-8.431698E-5,-2.4143623E-2,1.5035762E-2,-2.4990438E-2,1.1224916E-2,-2.5716752E-2,2.594201E-2,-2.884748E-2,-1.91321E-2,-1.951773E-2,3.652017E-2,-2.1500515E-3,-2.9943662E-2,4.882252E-2,-3.833359E-3,-3.2361593E-2,-2.5827192E-2,-1.2866001E-2,-2.58765E-2,1.8811312E-3,-2.7504984E-2,-2.04405E-2,5.8387317E-2,8.761015E-2,-6.619071E-3,-2.3021098E-2,-3.1652573E-2,1.757395E-2,7.7293E-2,-2.7491855E-2,5.38534E-3,-0E0,-3.2564E-2,-2.6109917E-2,1.0541826E-2,-1.9910887E-2,-3.212651E-3,6.2963003E-3,-2.6470816E-2,-1.529137E-3,-0E0,-1.7573944E-3,1.5340226E-4,1.0439034E-1,1.3238452E-2,-1.6580352E-4,1.0545504E-2,-1.9240113E-3,-0E0,1.294989E-2,-2.6160177E-2,-5.113623E-3,-3.1947576E-2,-1.9225355E-2,3.1746034E-2,9.9076465E-2,4.7793727E-2,-0E0,-2.9781029E-2,-3.7115025E-3,2.880791E-2,-0E0,-1.6361363E-3,-1.0813121E-3,-1.4471787E-3,2.620997E-3,-6.28698E-4,2.1802995E-3,-1.0353553E-3,4.2206342E-3,-2.3295074E-4,1.7915504E-3,-1.9899975E-4,8.6105196E-4,-1.3417974E-3,7.4820155E-3,-0E0,2.6916857E-3,-5.630129E-4,3.662801E-3,-2.4335063E-4,3.30723E-3,-5.0457095E-4,-1.3814269E-3,1.0203762E-3,-1.1946455E-3,1.1445162E-3,-1.6032829E-3,-0E0,4.6580695E-3,-1.0976624E-3,1.1839538E-2,1.4183522E-3,6.0738903E-3,1.7970307E-3,1.252523E-2,2.1866425E-3,-5.742894E-4,6.2085087E-3,-1.5377825E-3,5.7184295E-4,2.7625323E-3,-3.0318086E-4,8.489252E-4,5.0931456E-3],"categories":[],"categories_nodes":[],"categories_segments":[],"categories_sizes":[],"default_left":[0,0,0,0,0,0,0,0,0,0,0,0,0,0,0,0,0,0,0,0,0,0,0,0,0,0,0,0,0,0,0,0,0,0,0,0,0,0,0,0,0,0,0,0,0,0,0,0,0,0,0,0,0,0,0,0,0,0,0,0,0,0,0,0,0,0,0,0,0,0,0,0,0,0,0,0,0,0,0,0,0,0,0,0,0,0,0,0,0,0,0,0,0,0,0,0,0,0,0,0,0,0,0,0,0],"id":9,"left_children":[1,3,5,7,9,11,13,15,17,19,21,23,25,27,29,31,33,35,37,-1,39,41,43,45,47,49,51,53,55,57,59,-1,61,63,65,67,69,71,73,-1,-1,-1,-1,75,77,-1,-1,-1,79,81,83,85,87,89,91,93,95,97,99,101,103,-1,-1,-1,-1,-1,-1,-1,-1,-1,-1,-1,-1,-1,-1,-1,-1,-1,-1,-1,-1,-1,-1,-1,-1,-1,-1,-1,-1,-1,-1,-1,-1,-1,-1,-1,-1,-1,-1,-1,-1,-1,-1,-1,-1],"loss_changes":[5.3630066E0,1.7210579E-1,4.022581E0,1.2030578E-1,1.04284264E-1,1.8689013E-1,4.869675E0,2.8805256E-2,8.9654624E-2,2.6493924E-2,9.716014E-2,1.1081711E-1,1.2909412E-2,3.5833874E0,6.789067E-1,1.155746E-2,2.0515323E-2,7.6579526E-2,2.2471309E-2,0E0,3.863506E-3,1.0230805E-2,1.01089284E-1,1.6720438E-1,5.719538E-2,3.9486587E-2,6.159544E-3,1.00788E0,1.3377419E0,5.592096E-2,4.7776586E-1,0E0,7.153988E-3,1.7262578E-2,1.626027E-2,3.2244235E-2,5.5406757E-2,8.4873345E-3,1.8094838E-2,0E0,0E0,0E0,0E0,1.1972904E-1,3.469947E-2,0E0,0E0,0E0,8.043631E-2,3.6914706E-2,2.2551522E-2,1.06391655E-2,4.405856E-3,1.589441E-1,9.3328416E-1,1.6940575E0,7.0131016E-1,1.0068864E-1,3.4702122E-2,2.1786827E-1,5.28238E-1,0E0,0E0,0E0,0E0,0E0,0E0,0E0,0E0,0E0,0E0,0E0,0E0,0E0,0E0,0E0,0E0,0E0,0E0,0E0,0E0,0E0,0E0,0E0,0E0,0E0,0E0,0E0,0E0,0E0,0E0,0E0,0E0,0E0,0E0,0E0,0E0,0E0,0E0,0E0,0E0,0E0,0E0,0E0,0E0],"parents":[2147483647,0,0,1,1,2,2,3,3,4,4,5,5,6,6,7,7,8,8,9,9,10,10,11,11,12,12,13,13,14,14,15,15,16,16,17,17,18,18,20,20,21,21,22,22,23,23,24,24,25,25,26,26,27,27,28,28,29,29,30,30,32,32,33,33,34,34,35,35,36,36,37,37,38,38,43,43,44,44,48,48,49,49,50,50,51,51,52,52,53,53,54,54,55,55,56,56,57,57,58,58,59,59,60,60],"right_children":[2,4,6,8,10,12,14,16,18,20,22,24,26,28,30,32,34,36,38,-1,40,42,44,46,48,50,52,54,56,58,60,-1,62,64,66,68,70,72,74,-1,-1,-1,-1,76,78,-1,-1,-1,80,82,84,86,88,90,92,94,96,98,100,102,104,-1,-1,-1,-1,-1,-1,-1,-1,-1,-1,-1,-1,-1,-1,-1,-1,-1,-1,-1,-1,-1,-1,-1,-1,-1,-1,-1,-1,-1,-1,-1,-1,-1,-1,-1,-1,-1,-1,-1,-1,-1,-1,-1,-1],"split_conditions":[4E0,1E0,7E0,6E1,5.8E1,2E0,2.4E1,5.6E1,8E0,-3.3646297E-2,7E0,-2.1193543E-1,1.2E1,3.8E1,3.6E1,-1.4849691E-1,6.1268996E-2,8.2E1,-3.675987E-1,1.8811312E-3,-2.0409241E-1,3.0514717E-2,-8.38304E-2,2.2910308E-2,5.4E1,-1.8287658E-3,-2.3261872E-1,3.4E1,6E0,-7.830133E-2,1.5E1,-0E0,-1.4751586E-1,6E0,-1.4564972E-1,-1.5892486E-1,-1.7962341E-1,-1.186821E-1,-1.3636628E-1,-1.529137E-3,-0E0,-1.7573944E-3,1.5340226E-4,1E1,-2.1724243E-1,-1.6580352E-4,1.0545504E-2,-1.9240113E-3,-1.929123E-1,-2.2911024E-1,1.686809E-1,1.9835357E-1,1.9301758E0,2.1152114E-2,-1.2996101E-1,6E0,-4.8793413E-2,5.962801E-2,3.7273997E-1,-1.9548187E-1,2.340622E-1,-0E0,-1.6361363E-3,-1.0813121E-3,-1.4471787E-3,2.620997E-3,-6.28698E-4,2.1802995E-3,-1.0353553E-3,4.2206342E-3,-2.3295074E-4,1.7915504E-3,-1.9899975E-4,8.6105196E-4,-1.3417974E-3,7.4820155E-3,-0E0,2.6916857E-3,-5.630129E-4,3.662801E-3,-2.4335063E-4,3.30723E-3,-5.0457095E-4,-1.3814269E-3,1.0203762E-3,-1.1946455E-3,1.1445162E-3,-1.6032829E-3,-0E0,4.6580695E-3,-1.0976624E-3,1.1839538E-2,1.4183522E-3,6.0738903E-3,1.7970307E-3,1.252523E-2,2.1866425E-3,-5.742894E-4,6.2085087E-3,-1.5377825E-3,5.7184295E-4,2.7625323E-3,-3.0318086E-4,8.489252E-4,5.0931456E-3],"split_indices":[14,2,5,11,11,0,6,11,18,322,5,208,6,10,10,568,569,12,826,0,69,781,696,682,11,168,194,10,18,947,5,0,465,18,970,869,124,486,857,0,0,0,0,18,65,0,0,0,686,53,928,302,768,950,256,0,1039,475,875,427,1041,0,0,0,0,0,0,0,0,0,0,0,0,0,0,0,0,0,0,0,0,0,0,0,0,0,0,0,0,0,0,0,0,0,0,0,0,0,0,0,0,0,0,0,0],"split_type":[0,0,0,0,0,0,0,0,0,0,0,0,0,0,0,0,0,0,0,0,0,0,0,0,0,0,0,0,0,0,0,0,0,0,0,0,0,0,0,0,0,0,0,0,0,0,0,0,0,0,0,0,0,0,0,0,0,0,0,0,0,0,0,0,0,0,0,0,0,0,0,0,0,0,0,0,0,0,0,0,0,0,0,0,0,0,0,0,0,0,0,0,0,0,0,0,0,0,0,0,0,0,0,0,0],"sum_hessian":[1.4738E4,5.69E3,9.048E3,5.56E3,1.3E2,1.908E3,7.14E3,3.34E3,2.22E3,5.7E1,7.3E1,2.94E2,1.614E3,4.039E3,3.101E3,1.524E3,1.816E3,1.16E3,1.06E3,5E0,5.2E1,1.9E1,5.4E1,1.2E1,2.82E2,3.34E2,1.28E3,1.928E3,2.111E3,8.72E2,2.229E3,8E0,1.516E3,1.805E3,1.1E1,6.64E2,4.96E2,1.6E1,1.044E3,4.6E1,6E0,1.4E1,5E0,2.5E1,2.9E1,7E0,5E0,4.6E1,2.36E2,2.4E1,3.1E2,1.8E1,1.262E3,5.34E2,1.394E3,1.211E3,9E2,6.6E1,8.06E2,1.603E3,6.26E2,8E0,1.508E3,7.16E2,1.089E3,5E0,6E0,6E0,6.58E2,6E0,4.9E2,6E0,1E1,6E0,1.038E3,1.7E1,8E0,1.2E1,1.7E1,1.3E1,2.23E2,8E0,1.6E1,3.03E2,7E0,1.3E1,5E0,1.257E3,5E0,1.1E1,5.23E2,2.1E1,1.373E3,8.92E2,3.19E2,1.6E1,8.84E2,6.1E1,5E0,7.9E2,1.6E1,5.9E1,1.544E3,5.41E2,8.5E1],"tree_param":{"num_deleted":"0","num_feature":"1046","num_nodes":"105","size_leaf_vector":"1"}},{"base_weights":[2.6797678E-4,-2.2747504E-2,1.5040997E-2,-2.356151E-2,8.3718505E-3,-2.3751616E-2,2.550736E-2,-3.0098803E-2,-2.0516397E-2,-1.8944549E-3,7.8064897E-3,-4.573893E-3,-2.7876636E-2,6.1877005E-2,7.5346367E-3,-3.031459E-2,-1.8917962E-3,-1.546292E-2,-2.59586E-2,-1.2423506E-2,4.556977E-2,3.280539E-2,-1.1888451E-2,-1.8430898E-2,-2.9298497E-2,2.8541721E-2,9.085176E-2,-1.2827276E-2,2.0175638E-2,-0E0,-3.0449893E-2,-1.1919666E-3,1.4654914E-3,-5.7512345E-3,-1.975966E-2,-2.6441116E-2,2.7372444E-3,-2.2499485E-2,1.9943923E-2,-0E0,5.800431E-3,7.298068E-3,1.0949048E-2,4.3250874E-2,-1.6079443E-2,-2.0418022E-2,1.8927368E-3,-2.974146E-2,-2.8701087E-3,-2.2895591E-2,4.5523524E-2,3.309533E-1,8.657994E-2,-1.4344889E-2,1.0116256E-1,4.037951E-2,-1.390193E-3,-0E0,-2.8263018E-4,-0E0,-1.5265875E-3,2.411631E-3,-3.9888485E-4,-1.2397445E-3,-7.215351E-4,1.2019752E-4,-1.3400542E-3,-1.4311352E-3,-0E0,3.6307785E-3,-3.9861753E-4,9.999325E-4,-7.553522E-4,3.7622568E-3,-7.034884E-4,-0E0,7.1990127E-3,-1.042969E-3,4.049142E-4,5.479844E-4,-1.1433865E-3,-0E0,-1.4990572E-3,-1.2342175E-3,1.976213E-3,-1.3359756E-3,5.4879826E-3,6.3127405E-3,1.7372109E-3,4.6944707E-3,2.4629688E-2,5.6309947E-3,2.601602E-3,-1.446633E-3,-3.157728E-4,1.3579686E-2,-1.0328515E-3,1.2311543E-3,5.42474E-3,-1.2801599E-4,1.2808978E-2],"categories":[],"categories_nodes":[],"categories_segments":[],"categories_sizes":[],"default_left":[0,0,0,0,0,0,0,0,0,0,0,0,0,0,0,0,0,0,0,0,0,0,0,0,0,0,0,0,0,0,0,0,0,0,0,0,0,0,0,0,0,0,0,0,0,0,0,0,0,0,0,0,0,0,0,0,0,0,0,0,0,0,0,0,0,0,0,0,0,0,0,0,0,0,0,0,0,0,0,0,0,0,0,0,0,0,0,0,0,0,0,0,0,0,0,0,0,0,0,0,0],"id":10,"left_children":[1,3,5,7,9,11,13,15,17,19,-1,21,23,25,27,29,31,33,35,37,39,41,43,45,47,49,51,53,55,57,59,-1,-1,61,63,65,-1,67,69,71,-1,73,-1,75,77,79,-1,81,83,85,87,89,91,93,95,97,99,-1,-1,-1,-1,-1,-1,-1,-1,-1,-1,-1,-1,-1,-1,-1,-1,-1,-1,-1,-1,-1,-1,-1,-1,-1,-1,-1,-1,-1,-1,-1,-1,-1,-1,-1,-1,-1,-1,-1,-1,-1,-1,-1,-1],"loss_changes":[4.9963317E0,1.4719439E-1,3.6362627E0,1.0579896E-1,2.3415695E-1,1.4701271E-1,4.6035213E0,7.4771643E-3,1.0089946E-1,6.4718194E-2,0E0,9.180555E-2,1.563859E-2,2.2369375E0,1.2169273E0,4.188776E-3,1.2478053E-2,8.079243E-2,7.0073605E-2,3.7557375E-2,7.3360115E-2,2.3221134E-1,6.476288E-2,2.3188084E-2,1.2399197E-2,9.5279753E-1,1.2065535E0,3.0536675E-1,1.2753668E0,2.2366352E-4,4.019618E-3,0E0,0E0,7.111934E-2,3.27217E-2,2.146399E-2,0E0,1.3932474E-2,4.380314E-2,4.8536276E-3,0E0,7.831843E-2,0E0,8.883974E-2,3.2763943E-2,1.7660208E-2,0E0,8.993268E-3,2.4461266E-2,1.310825E-1,6.922294E-1,6.9980407E-1,1.0797167E0,2.0537227E-1,5.082267E-1,1.6035564E0,4.0025282E-1,0E0,0E0,0E0,0E0,0E0,0E0,0E0,0E0,0E0,0E0,0E0,0E0,0E0,0E0,0E0,0E0,0E0,0E0,0E0,0E0,0E0,0E0,0E0,0E0,0E0,0E0,0E0,0E0,0E0,0E0,0E0,0E0,0E0,0E0,0E0,0E0,0E0,0E0,0E0,0E0,0E0,0E0,0E0,0E0],"parents":[2147483647,0,0,1,1,2,2,3,3,4,4,5,5,6,6,7,7,8,8,9,9,11,11,12,12,13,13,14,14,15,15,16,16,17,17,18,18,19,19,20,20,21,21,22,22,23,23,24,24,25,25,26,26,27,27,28,28,29,29,30,30,33,33,34,34,35,35,37,37,38,38,39,39,41,41,43,43,44,44,45,45,47,47,48,48,49,49,50,50,51,51,52,52,53,53,54,54,55,55,56,56],"right_children":[2,4,6,8,10,12,14,16,18,20,-1,22,24,26,28,30,32,34,36,38,40,42,44,46,48,50,52,54,56,58,60,-1,-1,62,64,66,-1,68,70,72,-1,74,-1,76,78,80,-1,82,84,86,88,90,92,94,96,98,100,-1,-1,-1,-1,-1,-1,-1,-1,-1,-1,-1,-1,-1,-1,-1,-1,-1,-1,-1,-1,-1,-1,-1,-1,-1,-1,-1,-1,-1,-1,-1,-1,-1,-1,-1,-1,-1,-1,-1,-1,-1,-1,-1,-1],"split_conditions":[4E0,1E0,7E0,3.6E1,4.5621872E-2,6E0,2E1,1.0976744E-2,3.4E1,7.177868E-2,7.8064897E-3,-9.5723726E-2,3E1,3.8E1,5.8E1,-3.1042863E-2,5.0400876E-2,1E0,6.244583E-2,5.6882452E-2,-4.435444E-2,-2.6219178E-2,-6.526222E-2,-9.103012E-2,1.571823E-1,5.4E1,-2.4574478E-1,1.6353676E-1,2.6E1,-1.5888596E-2,-4.8496398E-1,-1.1919666E-3,1.4654914E-3,-1.8561478E-1,1E1,-3.264183E-1,2.7372444E-3,-1.3523254E-1,-3.0478096E-2,-4.7787422E-1,5.800431E-3,-1.2536088E-1,1.0949048E-2,1.3397178E-1,1.3282776E-2,-1.2029419E-1,1.8927368E-3,-1.2619857E-1,5.637113E-2,4.801178E-2,-4.2869188E-2,-9.989281E-2,3.6111068E-2,5.4E1,-2.5085753E-1,1.5E1,9.541245E-2,-0E0,-2.8263018E-4,-0E0,-1.5265875E-3,2.411631E-3,-3.9888485E-4,-1.2397445E-3,-7.215351E-4,1.2019752E-4,-1.3400542E-3,-1.4311352E-3,-0E0,3.6307785E-3,-3.9861753E-4,9.999325E-4,-7.553522E-4,3.7622568E-3,-7.034884E-4,-0E0,7.1990127E-3,-1.042969E-3,4.049142E-4,5.479844E-4,-1.1433865E-3,-0E0,-1.4990572E-3,-1.2342175E-3,1.976213E-3,-1.3359756E-3,5.4879826E-3,6.3127405E-3,1.7372109E-3,4.6944707E-3,2.4629688E-2,5.6309947E-3,2.601602E-3,-1.446633E-3,-3.157728E-4,1.3579686E-2,-1.0328515E-3,1.2311543E-3,5.42474E-3,-1.2801599E-4,1.2808978E-2],"split_indices":[14,15,5,10,597,14,6,790,17,454,0,818,8,10,11,328,42,1,196,246,934,554,242,835,57,11,664,558,6,964,512,0,0,238,5,1005,0,673,747,966,0,926,0,262,510,792,0,653,720,717,653,98,644,11,526,5,174,0,0,0,0,0,0,0,0,0,0,0,0,0,0,0,0,0,0,0,0,0,0,0,0,0,0,0,0,0,0,0,0,0,0,0,0,0,0,0,0,0,0,0,0],"split_type":[0,0,0,0,0,0,0,0,0,0,0,0,0,0,0,0,0,0,0,0,0,0,0,0,0,0,0,0,0,0,0,0,0,0,0,0,0,0,0,0,0,0,0,0,0,0,0,0,0,0,0,0,0,0,0,0,0,0,0,0,0,0,0,0,0,0,0,0,0,0,0,0,0,0,0,0,0,0,0,0,0,0,0,0,0,0,0,0,0,0,0,0,0,0,0,0,0,0,0,0,0],"sum_hessian":[1.4695E4,5.742E3,8.953E3,5.599E3,1.43E2,1.9E3,7.053E3,1.766E3,3.833E3,1.34E2,9E0,3.41E2,1.559E3,2.33E3,4.723E3,1.749E3,1.7E1,1.999E3,1.834E3,1.12E2,2.2E1,5.3E1,2.88E2,2.15E2,1.344E3,1.086E3,1.244E3,1.806E3,2.917E3,1.1E1,1.738E3,1.2E1,5E0,6.21E2,1.378E3,1.825E3,9E0,8.8E1,2.4E1,1.4E1,8E0,4.8E1,5E0,1.8E1,2.7E2,2.1E2,5E0,1.318E3,2.6E1,2.68E2,8.18E2,2E1,1.224E3,1.784E3,2.2E1,1.508E3,1.409E3,5E0,6E0,5E0,1.733E3,2.2E1,5.99E2,6.97E2,6.81E2,1.9E1,1.806E3,7.1E1,1.7E1,9E0,1.5E1,6E0,8E0,1.2E1,3.6E1,1.3E1,5E0,2.29E2,4.1E1,1.2E1,1.98E2,1.1E1,1.307E3,1.9E1,7E0,2.62E2,6E0,9.4E1,7.24E2,9E0,1.1E1,6.95E2,5.29E2,6.28E2,1.156E3,9E0,1.3E1,1.227E3,2.81E2,1.404E3,5E0],"tree_param":{"num_deleted":"0","num_feature":"1046","num_nodes":"101","size_leaf_vector":"1"}},{"base_weights":[3.5719387E-4,-2.162E-2,1.4309638E-2,-2.5654E-2,-1.5593232E-2,-1.7303374E-2,2.6287552E-2,1.4400866E-2,-2.6018906E-2,-9.367633E-3,-2.22724E-2,-3.6649124E-3,-2.7076015E-2,4.782239E-2,-8.3992403E-4,7.2882785E-3,-1.0928998E-3,-2.6267987E-2,1.4253346E-2,-1.6220178E-2,1.9531671E-3,-2.3088263E-2,7.422937E-3,-1.33004E-2,2.4579648E-2,2.690462E-3,-2.7693074E-2,4.578774E-3,6.2939756E-2,-9.247109E-3,2.143598E-2,-2.911833E-2,-2.3644807E-2,-1.1382218E-3,4.7625094E-3,-1.8181818E-2,1.2235996E-2,-0E0,6.6848196E-2,6.99914E-3,-2.3613485E-2,3.82019E-3,-7.1819755E-3,2.5989045E-3,-2.3439214E-2,9.033728E-3,1.5584844E-1,2.4958416E-3,-2.8125664E-2,2.6074476E-3,1.4848788E-2,4.2798612E-2,8.367103E-2,8.037012E-3,-1.7534895E-2,-2.1415732E-4,5.4575086E-2,-1.4654286E-3,4.6936065E-4,6.2726234E-4,-1.1987564E-3,2.0000365E-4,-1.0232326E-3,5.641994E-3,-1.7296878E-5,-1.819483E-4,1.6761626E-3,6.2849387E-3,-0E0,2.0031303E-3,-1.2904269E-4,-1.2030572E-3,4.670076E-5,1.0597634E-4,-1.0738414E-3,2.4985143E-3,-3.0017833E-4,6.221702E-4,-1.28314E-3,-0E0,1.2302306E-2,-0E0,1.5185296E-2,-1.4395211E-3,-0E0,-4.1644284E-4,2.6667714E-3,2.0345578E-3,2.5010088E-2,6.1722207E-3,3.1132537E-3,2.747507E-4,6.062328E-3,-9.3182793E-4,4.8016678E-3,1.1010881E-2,-2.0892487E-4,2.2126676E-3,1.3272569E-2],"categories":[],"categories_nodes":[],"categories_segments":[],"categories_sizes":[],"default_left":[0,0,0,0,0,0,0,0,0,0,0,0,0,0,0,0,0,0,0,0,0,0,0,0,0,0,0,0,0,0,0,0,0,0,0,0,0,0,0,0,0,0,0,0,0,0,0,0,0,0,0,0,0,0,0,0,0,0,0,0,0,0,0,0,0,0,0,0,0,0,0,0,0,0,0,0,0,0,0,0,0,0,0,0,0,0,0,0,0,0,0,0,0,0,0,0,0,0,0],"id":11,"left_children":[1,3,5,7,9,11,13,15,17,19,21,23,25,27,29,-1,-1,31,33,35,37,39,41,43,45,-1,47,49,51,53,55,57,59,-1,-1,61,63,65,67,69,71,-1,73,75,77,79,81,-1,83,85,-1,87,89,91,93,95,97,-1,-1,-1,-1,-1,-1,-1,-1,-1,-1,-1,-1,-1,-1,-1,-1,-1,-1,-1,-1,-1,-1,-1,-1,-1,-1,-1,-1,-1,-1,-1,-1,-1,-1,-1,-1,-1,-1,-1,-1,-1,-1],"loss_changes":[4.5181603E0,1.3453984E-1,3.4157116E0,5.1450968E-2,9.251499E-2,3.2683748E-1,3.8264823E0,1.537078E-1,3.5550833E-2,9.478265E-2,2.848488E-2,2.8196296E-1,7.065058E-2,2.378419E0,5.4096085E-1,0E0,0E0,1.922512E-2,6.638504E-2,4.296173E-2,5.1911302E-2,1.886183E-2,3.4672316E-2,1.2755862E-1,5.167658E-1,0E0,4.7201037E-2,5.1570386E-1,1.1119976E0,3.0262586E-1,5.722461E-1,1.3929367E-2,2.2698522E-2,0E0,0E0,3.7681E-2,6.951484E-2,5.5788755E-2,5.6977104E-2,8.919536E-3,1.401639E-2,0E0,4.9064495E-3,1.2694995E-1,3.98598E-2,5.2558863E-1,6.355261E-1,0E0,2.7315378E-2,5.280993E-1,0E0,1.2509992E0,1.1043854E0,1.8206117E-1,1.7258757E-1,3.9615056E-1,6.4073783E-1,0E0,0E0,0E0,0E0,0E0,0E0,0E0,0E0,0E0,0E0,0E0,0E0,0E0,0E0,0E0,0E0,0E0,0E0,0E0,0E0,0E0,0E0,0E0,0E0,0E0,0E0,0E0,0E0,0E0,0E0,0E0,0E0,0E0,0E0,0E0,0E0,0E0,0E0,0E0,0E0,0E0,0E0],"parents":[2147483647,0,0,1,1,2,2,3,3,4,4,5,5,6,6,7,7,8,8,9,9,10,10,11,11,12,12,13,13,14,14,17,17,18,18,19,19,20,20,21,21,22,22,23,23,24,24,26,26,27,27,28,28,29,29,30,30,31,31,32,32,35,35,36,36,37,37,38,38,39,39,40,40,42,42,43,43,44,44,45,45,46,46,48,48,49,49,51,51,52,52,53,53,54,54,55,55,56,56],"right_children":[2,4,6,8,10,12,14,16,18,20,22,24,26,28,30,-1,-1,32,34,36,38,40,42,44,46,-1,48,50,52,54,56,58,60,-1,-1,62,64,66,68,70,72,-1,74,76,78,80,82,-1,84,86,-1,88,90,92,94,96,98,-1,-1,-1,-1,-1,-1,-1,-1,-1,-1,-1,-1,-1,-1,-1,-1,-1,-1,-1,-1,-1,-1,-1,-1,-1,-1,-1,-1,-1,-1,-1,-1,-1,-1,-1,-1,-1,-1,-1,-1,-1,-1],"split_conditions":[4E0,6E1,2E1,-7.056484E-2,8E0,1E0,2.4E1,-8.9814186E-2,1.6204128E-1,1.5E1,1E0,7E0,-4.4469604E-1,3.6E1,4E1,7.2882785E-3,-1.0928998E-3,5.6E1,-6.523285E-2,2.2817954E-1,1E0,-3.675987E-1,-1.7117158E-1,6E0,1.6084023E-1,2.690462E-3,-3.3045045E-1,8.2250595E-2,-1.2363434E-2,-2.7465696E1,6E1,1.3318634E-1,-3.377112E-1,-1.1382218E-3,4.7625094E-3,-5.0083924E-2,-1.7999038E-1,1.7516021E-1,-6.2488555E-3,-1.186821E-1,-3.4337997E-2,3.82019E-3,-1.0179138E-2,-9.5723726E-2,-7.328606E-2,1.0100021E-1,3.2384776E-2,2.4958416E-3,9.4892785E-2,-1.0300064E-2,1.4848788E-2,1.6650696E-1,6.060829E-2,6.7680694E-2,8.542023E-2,4.504776E-3,5.610199E-2,-1.4654286E-3,4.6936065E-4,6.2726234E-4,-1.1987564E-3,2.0000365E-4,-1.0232326E-3,5.641994E-3,-1.7296878E-5,-1.819483E-4,1.6761626E-3,6.2849387E-3,-0E0,2.0031303E-3,-1.2904269E-4,-1.2030572E-3,4.670076E-5,1.0597634E-4,-1.0738414E-3,2.4985143E-3,-3.0017833E-4,6.221702E-4,-1.28314E-3,-0E0,1.2302306E-2,-0E0,1.5185296E-2,-1.4395211E-3,-0E0,-4.1644284E-4,2.6667714E-3,2.0345578E-3,2.5010088E-2,6.1722207E-3,3.1132537E-3,2.747507E-4,6.062328E-3,-9.3182793E-4,4.8016678E-3,1.1010881E-2,-2.0892487E-4,2.2126676E-3,1.3272569E-2],"split_indices":[14,11,9,591,18,2,6,390,468,6,2,5,517,10,9,0,0,11,1027,952,2,826,1009,13,185,0,149,83,459,1045,11,703,673,0,0,432,188,579,398,486,352,0,549,818,242,549,537,0,167,862,0,204,591,790,216,446,54,0,0,0,0,0,0,0,0,0,0,0,0,0,0,0,0,0,0,0,0,0,0,0,0,0,0,0,0,0,0,0,0,0,0,0,0,0,0,0,0,0,0],"split_type":[0,0,0,0,0,0,0,0,0,0,0,0,0,0,0,0,0,0,0,0,0,0,0,0,0,0,0,0,0,0,0,0,0,0,0,0,0,0,0,0,0,0,0,0,0,0,0,0,0,0,0,0,0,0,0,0,0,0,0,0,0,0,0,0,0,0,0,0,0,0,0,0,0,0,0,0,0,0,0,0,0,0,0,0,0,0,0,0,0,0,0,0,0,0,0,0,0,0,0],"sum_hessian":[1.4735E4,5.719E3,9.016E3,3.414E3,2.305E3,2.475E3,6.541E3,2.8E1,3.386E3,1.202E3,1.103E3,1.038E3,1.437E3,3.648E3,2.893E3,6E0,2.2E1,3.368E3,1.8E1,7.54E2,4.48E2,1.077E3,2.6E1,7.77E2,2.61E2,9E0,1.428E3,9.47E2,2.701E3,2.104E3,7.89E2,1.591E3,1.777E3,1.2E1,6E0,7.09E2,4.5E1,4.37E2,1.1E1,1.5E1,1.062E3,5E0,2.1E1,2.99E2,4.78E2,2.35E2,2.6E1,6E0,1.422E3,9.42E2,5E0,1.374E3,1.327E3,6.78E2,1.426E3,4.76E2,3.13E2,1.586E3,5E0,1.3E1,1.764E3,6.2E1,6.47E2,5E0,4E1,3.93E2,4.4E1,6E0,5E0,5E0,1E1,1.047E3,1.5E1,9E0,1.2E1,4.7E1,2.52E2,2.5E1,4.53E2,2.27E2,8E0,1.3E1,1.3E1,1.39E3,3.2E1,7.74E2,1.68E2,1.369E3,5E0,4.61E2,8.66E2,6.65E2,1.3E1,1.414E3,1.2E1,7E0,4.69E2,3E2,1.3E1],"tree_param":{"num_deleted":"0","num_feature":"1046","num_nodes":"99","size_leaf_vector":"1"}},{"base_weights":[2.4348147E-4,-2.0436391E-2,1.3215996E-2,-2.130859E-2,1.34596005E-2,-1.652906E-2,2.4552692E-2,-2.7190384E-2,-1.8495873E-2,2.085808E-3,8.383431E-3,-3.2291831E-3,-2.5656277E-2,4.5111716E-2,-1.0146379E-3,-2.7397435E-2,-0E0,-1.38740605E-2,-2.3505704E-2,-1.7504765E-2,3.0771311E-2,-1.3076786E-2,2.6634287E-2,-2.6103431E-2,3.5752822E-3,3.7368317E-3,6.00689E-2,-2.1635892E-2,6.8374495E-3,-0E0,-2.7509106E-2,1.4481262E-3,-1.0454177E-3,-1.9014852E-2,-4.999851E-3,-2.385594E-2,2.251751E-3,1.8755117E-3,-2.5876217E-2,6.9904774E-2,-7.2873184E-3,2.5143556E-2,-1.5787326E-2,1.916702E-2,1.1927832E-2,2.9922979E-2,-2.6692495E-2,-1.8145954E-2,2.3702145E-2,2.0911047E-2,5.879693E-2,-2.3608154E-2,6.079009E-2,-2.2471955E-3,3.513462E-2,-1.3800455E-3,-0E0,5.012881E-4,-9.876593E-4,-3.9389674E-4,1.9420093E-3,-1.2070342E-3,-0E0,-0E0,-1.4836591E-3,-1.514298E-4,4.8896982E-3,1.2755877E-3,-1.09688E-3,2.5550977E-4,6.5163993E-3,2.1049664E-3,-8.5653923E-4,6.4292655E-4,1.2529701E-2,-8.6148217E-4,5.616571E-3,-8.6084474E-4,-1.4830598E-3,1.0933392E-2,-1.0988782E-3,-4.0633112E-4,2.5916414E-3,2.27132E-3,4.3548606E-3,-1.3466877E-3,-1.6685529E-4,-6.582195E-4,9.658531E-3,-5.5888883E-4,5.5712025E-4,3.7225862E-3,7.910567E-4],"categories":[],"categories_nodes":[],"categories_segments":[],"categories_sizes":[],"default_left":[0,0,0,0,0,0,0,0,0,0,0,0,0,0,0,0,0,0,0,0,0,0,0,0,0,0,0,0,0,0,0,0,0,0,0,0,0,0,0,0,0,0,0,0,0,0,0,0,0,0,0,0,0,0,0,0,0,0,0,0,0,0,0,0,0,0,0,0,0,0,0,0,0,0,0,0,0,0,0,0,0,0,0,0,0,0,0,0,0,0,0,0,0],"id":12,"left_children":[1,3,5,7,9,11,13,15,17,19,-1,21,23,25,27,29,31,33,35,37,39,41,43,45,-1,47,49,51,53,-1,55,-1,-1,57,59,61,-1,-1,63,65,67,69,71,73,-1,75,77,79,81,-1,83,85,87,89,91,-1,-1,-1,-1,-1,-1,-1,-1,-1,-1,-1,-1,-1,-1,-1,-1,-1,-1,-1,-1,-1,-1,-1,-1,-1,-1,-1,-1,-1,-1,-1,-1,-1,-1,-1,-1,-1,-1],"loss_changes":[3.947945E0,1.687293E-1,3.0522897E0,8.644891E-2,2.2822663E-1,2.998988E-1,3.4494958E0,7.3127747E-3,8.292723E-2,7.604474E-2,0E0,2.9925188E-1,6.1409593E-2,2.2429218E0,4.7443384E-1,6.2447786E-3,1.0716037E-2,8.723888E-2,4.1950166E-2,3.526999E-2,9.017565E-2,7.93352E-2,3.6685783E-1,4.899025E-2,0E0,4.2390174E-1,1.1431379E0,1.2923262E-1,5.4629904E-1,0E0,5.0599575E-3,0E0,0E0,2.7715594E-2,8.9317724E-2,1.33087635E-2,0E0,0E0,4.867945E-3,6.8760246E-2,1.3656689E-2,8.904287E-2,5.4450855E-2,3.266614E-1,0E0,6.584644E-2,3.5787225E-2,4.025306E-1,4.6053255E-1,0E0,9.893093E-1,5.027446E-2,1.9676599E-1,1.9109242E-1,3.816195E-1,0E0,0E0,0E0,0E0,0E0,0E0,0E0,0E0,0E0,0E0,0E0,0E0,0E0,0E0,0E0,0E0,0E0,0E0,0E0,0E0,0E0,0E0,0E0,0E0,0E0,0E0,0E0,0E0,0E0,0E0,0E0,0E0,0E0,0E0,0E0,0E0,0E0,0E0],"parents":[2147483647,0,0,1,1,2,2,3,3,4,4,5,5,6,6,7,7,8,8,9,9,11,11,12,12,13,13,14,14,15,15,16,16,17,17,18,18,19,19,20,20,21,21,22,22,23,23,25,25,26,26,27,27,28,28,30,30,33,33,34,34,35,35,38,38,39,39,40,40,41,41,42,42,43,43,45,45,46,46,47,47,48,48,50,50,51,51,52,52,53,53,54,54],"right_children":[2,4,6,8,10,12,14,16,18,20,-1,22,24,26,28,30,32,34,36,38,40,42,44,46,-1,48,50,52,54,-1,56,-1,-1,58,60,62,-1,-1,64,66,68,70,72,74,-1,76,78,80,82,-1,84,86,88,90,92,-1,-1,-1,-1,-1,-1,-1,-1,-1,-1,-1,-1,-1,-1,-1,-1,-1,-1,-1,-1,-1,-1,-1,-1,-1,-1,-1,-1,-1,-1,-1,-1,-1,-1,-1,-1,-1,-1],"split_conditions":[4E0,1E0,2E1,3.6E1,4.5621872E-2,1E0,2.4E1,1.5753174E-2,3.4E1,3.8E1,8.383431E-3,7E0,3.7868652E-1,3.6E1,3.6E1,-1.4516602E0,7.710266E-2,8.2E1,6.244583E-2,1.1387177E-1,1.336731E-1,-6.526222E-2,5.281677E-2,-2.2791214E-1,3.5752822E-3,-2.0382604E-1,-6.3548565E-2,1.3009396E-1,4E1,-0E0,1.3318634E-1,1.4481262E-3,-1.0454177E-3,-2.1214399E-1,4.7304687E-1,1.6575757E-1,2.251751E-3,1.8755117E-3,-6.961403E-2,2.2E1,3.614235E-2,3.1841737E-1,5E0,1.2607275E-1,1.1927832E-2,-1.22727394E-1,1.4E1,-1.8268433E-1,3.4E1,2.0911047E-2,-1.0593567E-1,1.3664246E-2,-5.41687E-4,3.9041767E-1,2.7E1,-1.3800455E-3,-0E0,5.012881E-4,-9.876593E-4,-3.9389674E-4,1.9420093E-3,-1.2070342E-3,-0E0,-0E0,-1.4836591E-3,-1.514298E-4,4.8896982E-3,1.2755877E-3,-1.09688E-3,2.5550977E-4,6.5163993E-3,2.1049664E-3,-8.5653923E-4,6.4292655E-4,1.2529701E-2,-8.6148217E-4,5.616571E-3,-8.6084474E-4,-1.4830598E-3,1.0933392E-2,-1.0988782E-3,-4.0633112E-4,2.5916414E-3,2.27132E-3,4.3548606E-3,-1.3466877E-3,-1.6685529E-4,-6.582195E-4,9.658531E-3,-5.5888883E-4,5.5712025E-4,3.7225862E-3,7.910567E-4],"split_indices":[14,2,9,10,597,2,6,790,17,10,0,5,565,10,10,27,63,12,196,830,51,242,936,473,0,835,135,920,9,0,703,0,0,651,353,1033,0,0,112,9,345,493,6,454,0,657,14,102,10,0,479,603,887,190,6,0,0,0,0,0,0,0,0,0,0,0,0,0,0,0,0,0,0,0,0,0,0,0,0,0,0,0,0,0,0,0,0,0,0,0,0,0,0],"split_type":[0,0,0,0,0,0,0,0,0,0,0,0,0,0,0,0,0,0,0,0,0,0,0,0,0,0,0,0,0,0,0,0,0,0,0,0,0,0,0,0,0,0,0,0,0,0,0,0,0,0,0,0,0,0,0,0,0,0,0,0,0,0,0,0,0,0,0,0,0,0,0,0,0,0,0,0,0,0,0,0,0,0,0,0,0,0,0,0,0,0,0,0,0],"sum_hessian":[1.4717E4,5.67E3,9.047E3,5.531E3,1.39E2,2.494E3,6.553E3,1.775E3,3.756E3,1.31E2,8E0,1.02E3,1.474E3,3.634E3,2.919E3,1.758E3,1.7E1,1.966E3,1.79E3,7.6E1,5.5E1,7.7E2,2.5E2,1.469E3,5E0,9.67E2,2.667E3,8.08E2,2.111E3,6E0,1.752E3,5E0,1.2E1,1.237E3,7.29E2,1.783E3,7E0,8E0,6.8E1,2.8E1,2.7E1,4.8E1,7.22E2,2.43E2,7E0,1.3E1,1.456E3,4.59E2,5.08E2,8E0,2.659E3,7.91E2,1.7E1,1.596E3,5.15E2,1.747E3,5E0,2.7E1,1.21E3,6.87E2,4.2E1,1.764E3,1.9E1,1.1E1,5.7E1,7E0,2.1E1,6E0,2.1E1,4.2E1,6E0,1.4E1,7.08E2,2.38E2,5E0,8E0,5E0,3.57E2,1.099E3,6E0,4.53E2,2.37E2,2.71E2,1.81E3,8.49E2,6.75E2,1.16E2,1.1E1,6E0,9.62E2,6.34E2,1.67E2,3.48E2],"tree_param":{"num_deleted":"0","num_feature":"1046","num_nodes":"93","size_leaf_vector":"1"}},{"base_weights":[1.2667839E-5,-1.9391444E-2,1.234406E-2,-2.3252593E-2,-1.3681262E-2,-1.6017262E-2,2.3153517E-2,2.1495975E-3,-2.3470195E-2,-4.4560665E-3,-1.945951E-2,-3.5659515E-3,-2.447001E-2,4.7908038E-2,5.833877E-3,-2.38493E-2,-5.5159735E-3,-6.3626077E-3,6.441867E-2,-6.8833875E-3,-2.108176E-2,9.328468E-3,-4.7945967E-3,-2.4921231E-2,3.6820625E-3,7.3664784E-2,8.676206E-3,-2.9481841E-2,1.061827E-2,-2.8355662E-3,-2.4080617E-2,4.8980936E-3,-1.5451405E-2,-1.2961664E-2,5.9384354E-3,2.970028E-3,9.508136E-3,1.86884E-2,-1.1254694E-2,-2.167073E-2,1.1282351E-2,-1.15436595E-2,1.6174728E-2,-2.5354609E-2,3.4263115E-3,1.0013987E-2,9.449589E-2,-9.988432E-3,3.4652594E-2,1.7105753E-3,-3.062679E-2,1.8112788E-2,-1.581895E-2,-1.1080324E-3,1.5127322E-3,-3.407244E-4,-1.2190043E-3,1.4939129E-3,-1.1165595E-3,-7.085972E-4,2.0865106E-3,3.1693584E-5,2.1242616E-3,-1.0454545E-3,2.2473836E-3,2.15526E-3,-0E0,-8.250147E-4,1.0043299E-4,-1.0985086E-3,7.213621E-4,-3.9900464E-4,3.7112366E-3,2.2964741E-4,-9.972458E-4,5.9128683E-3,2.2285555E-4,-6.411263E-4,-1.3992899E-3,9.039106E-3,8.721365E-5,3.0406413E-3,7.7133044E-3,7.375429E-3,-6.356722E-4,1.3585116E-3,8.092702E-3,-1.5707106E-3,-0E0,1.497732E-3,8.50148E-5,3.8126993E-3,-8.5270917E-4],"categories":[],"categories_nodes":[],"categories_segments":[],"categories_sizes":[],"default_left":[0,0,0,0,0,0,0,0,0,0,0,0,0,0,0,0,0,0,0,0,0,0,0,0,0,0,0,0,0,0,0,0,0,0,0,0,0,0,0,0,0,0,0,0,0,0,0,0,0,0,0,0,0,0,0,0,0,0,0,0,0,0,0,0,0,0,0,0,0,0,0,0,0,0,0,0,0,0,0,0,0,0,0,0,0,0,0,0,0,0,0,0,0],"id":13,"left_children":[1,3,5,7,9,11,13,-1,15,17,19,21,23,25,27,29,31,33,35,37,39,-1,41,43,-1,45,47,49,51,53,55,-1,57,59,61,63,-1,65,67,69,71,73,75,77,-1,79,81,83,85,-1,87,89,91,-1,-1,-1,-1,-1,-1,-1,-1,-1,-1,-1,-1,-1,-1,-1,-1,-1,-1,-1,-1,-1,-1,-1,-1,-1,-1,-1,-1,-1,-1,-1,-1,-1,-1,-1,-1,-1,-1,-1,-1],"loss_changes":[3.5291495E0,1.22300625E-1,2.7672708E0,4.8154116E-2,1.21403635E-1,2.5896567E-1,2.7965872E0,0E0,2.0053864E-2,1.1317949E-1,2.6069462E-2,2.1912919E-1,6.2349916E-2,2.7073083E0,6.4877033E-1,1.338315E-2,7.242608E-2,7.229471E-2,1.5783839E-1,1.8581703E-2,2.5148332E-2,0E0,1.4223754E-1,5.703324E-2,0E0,2.1379137E0,5.206216E-1,3.401631E-2,6.7278516E-1,2.6718847E-2,1.3674021E-2,0E0,2.2366304E-2,3.6160983E-2,5.44022E-2,2.0384287E-2,0E0,1.2755003E-2,1.1918442E-2,1.4398932E-2,3.1465266E-2,1.0547169E-1,2.7667347E-1,4.393357E-2,0E0,5.491379E-1,2.4252691E0,2.544881E-1,4.040436E-1,0E0,1.0190159E-2,5.112394E-1,8.033797E-2,0E0,0E0,0E0,0E0,0E0,0E0,0E0,0E0,0E0,0E0,0E0,0E0,0E0,0E0,0E0,0E0,0E0,0E0,0E0,0E0,0E0,0E0,0E0,0E0,0E0,0E0,0E0,0E0,0E0,0E0,0E0,0E0,0E0,0E0,0E0,0E0,0E0,0E0,0E0,0E0],"parents":[2147483647,0,0,1,1,2,2,3,3,4,4,5,5,6,6,8,8,9,9,10,10,11,11,12,12,13,13,14,14,15,15,16,16,17,17,18,18,19,19,20,20,22,22,23,23,25,25,26,26,27,27,28,28,29,29,30,30,32,32,33,33,34,34,35,35,37,37,38,38,39,39,40,40,41,41,42,42,43,43,45,45,46,46,47,47,48,48,50,50,51,51,52,52],"right_children":[2,4,6,8,10,12,14,-1,16,18,20,22,24,26,28,30,32,34,36,38,40,-1,42,44,-1,46,48,50,52,54,56,-1,58,60,62,64,-1,66,68,70,72,74,76,78,-1,80,82,84,86,-1,88,90,92,-1,-1,-1,-1,-1,-1,-1,-1,-1,-1,-1,-1,-1,-1,-1,-1,-1,-1,-1,-1,-1,-1,-1,-1,-1,-1,-1,-1,-1,-1,-1,-1,-1,-1,-1,-1,-1,-1,-1,-1],"split_conditions":[4E0,6E1,2E1,-2.0790291E-1,6E0,1E0,6E0,2.1495975E-3,1E0,1E0,4E0,-3.1274414E-1,-1.4589806E-1,6E0,5.4E1,-4.4236603E-1,-4.96315E-2,8.2E1,-1.1591415E-1,-7.7119134E-2,2.2668152E-1,9.328468E-3,1.4E1,3.7868652E-1,3.6820625E-3,5.6E1,6E1,-2.0092162E-1,6E0,-2.049942E-1,-3.6374205E-1,4.8980936E-3,-3.3646297E-2,1.396906E-1,1.5204621E-2,-1.3853455E-1,9.508136E-3,1.4614066E-1,-6.560707E-2,-4.7558974E-2,-1.041439E-1,2E0,-4.524331E-2,4E0,3.4263115E-3,-1.4448777E-1,1E1,-2.5451356E-1,4.8E1,1.7105753E-3,1.807785E-1,-3.1036376E-3,-2.8877106E-1,-1.1080324E-3,1.5127322E-3,-3.407244E-4,-1.2190043E-3,1.4939129E-3,-1.1165595E-3,-7.085972E-4,2.0865106E-3,3.1693584E-5,2.1242616E-3,-1.0454545E-3,2.2473836E-3,2.15526E-3,-0E0,-8.250147E-4,1.0043299E-4,-1.0985086E-3,7.213621E-4,-3.9900464E-4,3.7112366E-3,2.2964741E-4,-9.972458E-4,5.9128683E-3,2.2285555E-4,-6.411263E-4,-1.3992899E-3,9.039106E-3,8.721365E-5,3.0406413E-3,7.7133044E-3,7.375429E-3,-6.356722E-4,1.3585116E-3,8.092702E-3,-1.5707106E-3,-0E0,1.497732E-3,8.50148E-5,3.8126993E-3,-8.5270917E-4],"split_indices":[14,11,9,278,18,2,18,0,2,2,13,399,1019,0,11,694,857,12,508,207,670,0,9,565,0,11,11,382,0,621,517,0,322,598,130,55,0,949,713,566,188,0,111,0,0,124,14,881,9,0,798,282,221,0,0,0,0,0,0,0,0,0,0,0,0,0,0,0,0,0,0,0,0,0,0,0,0,0,0,0,0,0,0,0,0,0,0,0,0,0,0,0,0],"split_type":[0,0,0,0,0,0,0,0,0,0,0,0,0,0,0,0,0,0,0,0,0,0,0,0,0,0,0,0,0,0,0,0,0,0,0,0,0,0,0,0,0,0,0,0,0,0,0,0,0,0,0,0,0,0,0,0,0,0,0,0,0,0,0,0,0,0,0,0,0,0,0,0,0,0,0,0,0,0,0,0,0,0,0,0,0,0,0,0,0,0,0,0,0],"sum_hessian":[1.475E4,5.728E3,9.022E3,3.405E3,2.323E3,2.487E3,6.535E3,9E0,3.396E3,9.02E2,1.421E3,1.011E3,1.476E3,2.687E3,3.848E3,3.32E3,7.6E1,8.8E2,2.2E1,1.7E2,1.251E3,5E0,1.006E3,1.471E3,5E0,1.62E3,1.067E3,4.56E2,3.392E3,4.1E1,3.279E3,5E0,7.1E1,5.78E2,3.02E2,1.6E1,6E0,2.1E1,1.49E2,1.232E3,1.9E1,7.65E2,2.41E2,1.466E3,5E0,4.01E2,1.219E3,6.19E2,4.48E2,6E0,4.5E2,2.646E3,7.46E2,2.8E1,1.3E1,6.2E1,3.217E3,7E0,6.4E1,5.68E2,1E1,2.67E2,3.5E1,9E0,7E0,1E1,1.1E1,1.12E2,3.7E1,1.225E3,7E0,1.4E1,5E0,2.58E2,5.07E2,2.3E1,2.18E2,2.62E2,1.204E3,1.7E1,3.84E2,7.82E2,4.37E2,9E0,6.1E2,4.25E2,2.3E1,4.38E2,1.2E1,1.533E3,1.113E3,8E0,7.38E2],"tree_param":{"num_deleted":"0","num_feature":"1046","num_nodes":"93","size_leaf_vector":"1"}},{"base_weights":[2.4015908E-4,-1.8377757E-2,1.2174506E-2,-1.2064806E-2,-2.1323232E-2,-1.980895E-2,2.0728229E-2,-2.372012E-3,-1.76072E-2,-1.7076127E-2,-2.3475617E-2,-0E0,-2.3387335E-2,6.60064E-2,1.0644663E-2,-1.3987487E-2,1.4775656E-2,1.0987644E-2,-1.885855E-2,-1.9381989E-2,-5.9381975E-3,-2.3623616E-2,1.349517E-3,-5.9133833E-3,5.593454E-2,-1.740267E-2,-2.4804454E-2,4.3035213E-2,1.1778061E-1,-6.110127E-3,2.6013857E-2,3.5341483E-2,-1.7021812E-2,3.1762198E-2,-1.0463303E-2,6.404289E-3,-3.977635E-3,1.9173941E-3,-1.939597E-2,-1.9758102E-2,1.7723062E-3,-8.780125E-3,2.472578E-3,-2.3762172E-2,5.5491325E-4,-1.8205887E-2,1.0857464E-2,-0E0,9.170539E-3,-1.8817188E-2,1.4073061E-3,-4.1869868E-4,-2.5112566E-2,3.9718308E-2,1.9625157E-2,4.1608196E-2,1.848493E-1,-2.3531744E-2,8.2331174E-4,5.735451E-2,1.4949684E-2,-4.917054E-4,3.7532833E-3,2.756278E-3,-9.2846033E-4,5.9982657E-4,3.7293993E-3,-7.5688097E-4,2.7038644E-3,2.0111052E-3,-7.7805395E-4,-1.1564792E-3,-6.5130065E-4,2.1450942E-4,-1.0268919E-3,-6.508572E-4,1.180513E-3,-1.1962823E-3,-0E0,1.730796E-4,-1.2228562E-3,-5.7686517E-5,3.6222152E-3,-1.2139085E-3,3.3075258E-3,3.6998276E-4,-1.0427987E-3,-8.493719E-4,1.358386E-3,-1.263979E-3,-0E0,9.7043876E-4,4.2086337E-3,1.6230738E-2,1.4907838E-3,1.06804585E-2,-2.0464882E-4,1.4793718E-3,-1.2971011E-3,5.1673E-4,-9.3853613E-4,5.0688894E-3,7.775748E-4,1.7235458E-3,1.3442364E-4],"categories":[],"categories_nodes":[],"categories_segments":[],"categories_sizes":[],"default_left":[0,0,0,0,0,0,0,0,0,0,0,0,0,0,0,0,0,0,0,0,0,0,0,0,0,0,0,0,0,0,0,0,0,0,0,0,0,0,0,0,0,0,0,0,0,0,0,0,0,0,0,0,0,0,0,0,0,0,0,0,0,0,0,0,0,0,0,0,0,0,0,0,0,0,0,0,0,0,0,0,0,0,0,0,0,0,0,0,0,0,0,0,0,0,0,0,0,0,0,0,0,0,0,0,0],"id":14,"left_children":[1,3,5,7,9,11,13,15,17,19,21,23,25,27,29,31,33,35,37,39,41,43,-1,45,47,49,51,53,55,57,59,61,63,65,67,-1,69,-1,71,73,-1,75,-1,77,-1,79,81,83,-1,85,-1,87,89,91,-1,93,95,97,99,101,103,-1,-1,-1,-1,-1,-1,-1,-1,-1,-1,-1,-1,-1,-1,-1,-1,-1,-1,-1,-1,-1,-1,-1,-1,-1,-1,-1,-1,-1,-1,-1,-1,-1,-1,-1,-1,-1,-1,-1,-1,-1,-1,-1,-1],"loss_changes":[3.262281E0,1.030072E-1,2.4495697E0,9.664634E-2,3.1168103E-2,1.3415247E-1,3.2177238E0,1.3477238E-1,4.2573094E-2,3.151065E-2,1.9481182E-2,9.676449E-2,8.908689E-3,1.5071201E0,1.4910583E0,5.9689447E-2,1.1821735E-1,9.353098E-2,3.3189535E-2,2.1691501E-2,3.3674084E-2,1.3860583E-2,0E0,5.4945305E-2,1.8151323E-1,2.0407505E-2,7.0311427E-3,9.763113E-1,1.9774151E0,3.3615848E-1,1.0387759E0,4.674176E-2,4.0461212E-2,1.2926953E-1,2.9204726E-2,0E0,1.9151187E-2,0E0,2.2458464E-2,2.2132993E-2,0E0,3.053845E-2,0E0,9.049535E-3,0E0,2.3178741E-2,8.710364E-2,3.947268E-2,0E0,1.8390335E-2,0E0,9.041998E-3,4.188597E-3,7.879307E-1,0E0,5.7562757E-1,1.1520891E0,1.01676375E-1,3.6723393E-1,1.43137E0,5.311475E-1,0E0,0E0,0E0,0E0,0E0,0E0,0E0,0E0,0E0,0E0,0E0,0E0,0E0,0E0,0E0,0E0,0E0,0E0,0E0,0E0,0E0,0E0,0E0,0E0,0E0,0E0,0E0,0E0,0E0,0E0,0E0,0E0,0E0,0E0,0E0,0E0,0E0,0E0,0E0,0E0,0E0,0E0,0E0,0E0],"parents":[2147483647,0,0,1,1,2,2,3,3,4,4,5,5,6,6,7,7,8,8,9,9,10,10,11,11,12,12,13,13,14,14,15,15,16,16,17,17,18,18,19,19,20,20,21,21,23,23,24,24,25,25,26,26,27,27,28,28,29,29,30,30,31,31,32,32,33,33,34,34,36,36,38,38,39,39,41,41,43,43,45,45,46,46,47,47,49,49,51,51,52,52,53,53,55,55,56,56,57,57,58,58,59,59,60,60],"right_children":[2,4,6,8,10,12,14,16,18,20,22,24,26,28,30,32,34,36,38,40,42,44,-1,46,48,50,52,54,56,58,60,62,64,66,68,-1,70,-1,72,74,-1,76,-1,78,-1,80,82,84,-1,86,-1,88,90,92,-1,94,96,98,100,102,104,-1,-1,-1,-1,-1,-1,-1,-1,-1,-1,-1,-1,-1,-1,-1,-1,-1,-1,-1,-1,-1,-1,-1,-1,-1,-1,-1,-1,-1,-1,-1,-1,-1,-1,-1,-1,-1,-1,-1,-1,-1,-1,-1,-1],"split_conditions":[4E0,1E0,7E0,3.2E1,3.1E1,2E0,1.7E1,3E1,-1.9248047E-1,8.2E1,1.0658874E-1,5.85474E-2,1.2E1,1.5E1,3.8E1,9.209633E-3,1.7365627E-1,-2.5235385E-1,-1.4882164E-1,1.4211121E-1,5.954933E-2,1.9301758E0,1.349517E-3,-1.0354912E-1,-7.186012E-2,2.5046235E-1,-2.3261872E-1,1.6650696E-1,1E1,3.4E1,3.2E1,-6.6741942E-3,-1.1226332E-1,-1.21345045E-2,1.006279E-1,6.404289E-3,-4.8042677E-2,1.9173941E-3,3.2511137E-2,-5.725891E-1,1.7723062E-3,1.8402863E-2,2.472578E-3,1.2597045E-1,5.5491325E-4,-1.9031677E-1,3.935913E-1,3.3276178E-2,9.170539E-3,-1.4877205E-1,1.4073061E-3,3.8135815E-2,1.1941934E-1,1.4195251E-2,1.9625157E-2,-1.0903168E-2,3.4855794E-2,1.5025711E-2,2.7E1,8E0,2.4E1,-4.917054E-4,3.7532833E-3,2.756278E-3,-9.2846033E-4,5.9982657E-4,3.7293993E-3,-7.5688097E-4,2.7038644E-3,2.0111052E-3,-7.7805395E-4,-1.1564792E-3,-6.5130065E-4,2.1450942E-4,-1.0268919E-3,-6.508572E-4,1.180513E-3,-1.1962823E-3,-0E0,1.730796E-4,-1.2228562E-3,-5.7686517E-5,3.6222152E-3,-1.2139085E-3,3.3075258E-3,3.6998276E-4,-1.0427987E-3,-8.493719E-4,1.358386E-3,-1.263979E-3,-0E0,9.7043876E-4,4.2086337E-3,1.6230738E-2,1.4907838E-3,1.06804585E-2,-2.0464882E-4,1.4793718E-3,-1.2971011E-3,5.1673E-4,-9.3853613E-4,5.0688894E-3,7.775748E-4,1.7235458E-3,1.3442364E-4],"split_indices":[14,1,5,17,17,0,6,17,202,12,560,398,6,6,10,990,78,58,37,708,560,768,0,657,22,990,194,204,5,10,17,273,156,91,45,0,928,0,275,297,0,523,0,909,0,539,327,362,0,35,0,703,163,163,0,148,293,841,6,0,6,0,0,0,0,0,0,0,0,0,0,0,0,0,0,0,0,0,0,0,0,0,0,0,0,0,0,0,0,0,0,0,0,0,0,0,0,0,0,0,0,0,0,0,0],"split_type":[0,0,0,0,0,0,0,0,0,0,0,0,0,0,0,0,0,0,0,0,0,0,0,0,0,0,0,0,0,0,0,0,0,0,0,0,0,0,0,0,0,0,0,0,0,0,0,0,0,0,0,0,0,0,0,0,0,0,0,0,0,0,0,0,0,0,0,0,0,0,0,0,0,0,0,0,0,0,0,0,0,0,0,0,0,0,0,0,0,0,0,0,0,0,0,0,0,0,0,0,0,0,0,0,0],"sum_hessian":[1.4683E4,5.732E3,8.951E3,1.836E3,3.896E3,1.886E3,7.065E3,6.75E2,1.161E3,1.329E3,2.567E3,2.88E2,1.598E3,1.284E3,5.781E3,4.06E2,2.69E2,4.5E1,1.116E3,1.093E3,2.36E2,2.562E3,5E0,2.61E2,2.7E1,3.22E2,1.276E3,8.92E2,3.92E2,2.763E3,3.018E3,2.1E1,3.85E2,1.63E2,1.06E2,5E0,4E1,8E0,1.108E3,1.088E3,5E0,2.27E2,9E0,2.555E3,7E0,1.54E2,1.07E2,2E1,7E0,3.15E2,7E0,2E1,1.256E3,8.85E2,7E0,1.85E2,2.07E2,7.9E2,1.973E3,7.84E2,2.234E3,9E0,1.2E1,6E0,3.79E2,1.14E2,4.9E1,1.01E2,5E0,6E0,3.4E1,6.87E2,4.21E2,3E1,1.058E3,2.04E2,2.3E1,2.536E3,1.9E1,3.1E1,1.23E2,8.9E1,1.8E1,1.4E1,6E0,1.9E1,2.96E2,1.5E1,5E0,1.246E3,1E1,6.1E2,2.75E2,6E0,1.79E2,1.8E2,2.7E1,3.2E1,7.58E2,1.332E3,6.41E2,3.8E2,4.04E2,8.58E2,1.376E3],"tree_param":{"num_deleted":"0","num_feature":"1046","num_nodes":"105","size_leaf_vector":"1"}},{"base_weights":[5.7328384E-6,-1.777314E-2,1.1205898E-2,-2.1233002E-2,-1.2566565E-2,-1.883089E-2,1.9521823E-2,-2.2391742E-2,-1.4846715E-2,-1.3588535E-2,2.5702562E-2,-8.920019E-4,-2.192936E-2,4.168919E-2,2.0261623E-3,3.1443476E-4,-2.2684662E-2,2.9583913E-3,-1.598279E-2,-8.455793E-3,-1.9003673E-2,5.663799E-3,2.532133E-3,-4.76853E-3,8.983067E-2,7.373022E-4,-2.2109713E-2,1.6521785E-2,6.559776E-2,-1.1621867E-2,1.4474239E-2,-1.6057609E-2,4.666578E-3,-2.2868754E-2,-0E0,7.0644426E-3,-1.865461E-2,-1.4358688E-2,1.4262304E-3,1.1848119E-2,-1.9518608E-2,-2.0589558E-2,2.7702805E-2,-1.08718965E-2,4.0319502E-2,-0E0,8.586375E-3,-1.4121123E-2,-2.3288503E-2,-1.50641855E-2,2.8708644E-2,5.503316E-2,1.2685993E-1,-1.7585194E-2,4.9303398E-3,7.210715E-3,4.852306E-2,-0E0,-1.106405E-3,-1.1521038E-3,-0E0,2.0933016E-3,-6.7758997E-4,-3.0562555E-4,4.6400875E-3,7.723856E-4,-9.701685E-4,-0E0,-8.475504E-4,3.2021478E-3,-3.884626E-5,-0E0,2.0506638E-3,4.853996E-4,-9.951453E-4,-1.3289024E-3,-0E0,-4.936752E-4,3.0039288E-3,3.2708936E-3,-6.5429666E-4,3.736906E-4,8.236926E-3,3.2158007E-4,-9.02994E-4,-0E0,-1.1810628E-3,6.6451295E-3,-9.2471496E-4,1.4057494E-2,1.3369796E-3,2.3878135E-3,6.9467328E-3,1.9479511E-2,5.2565904E-3,-9.1861555E-4,5.3896178E-3,1.5288467E-3,-5.852463E-4,9.887045E-4,-3.1166154E-4,1.981694E-3,1.5933326E-2],"categories":[],"categories_nodes":[],"categories_segments":[],"categories_sizes":[],"default_left":[0,0,0,0,0,0,0,0,0,0,0,0,0,0,0,0,0,0,0,0,0,0,0,0,0,0,0,0,0,0,0,0,0,0,0,0,0,0,0,0,0,0,0,0,0,0,0,0,0,0,0,0,0,0,0,0,0,0,0,0,0,0,0,0,0,0,0,0,0,0,0,0,0,0,0,0,0,0,0,0,0,0,0,0,0,0,0,0,0,0,0,0,0,0,0,0,0,0,0,0,0,0,0],"id":15,"left_children":[1,3,5,7,9,11,13,15,17,19,21,23,25,27,29,31,33,-1,35,37,39,-1,41,43,45,-1,47,49,51,53,55,57,-1,59,61,63,65,67,69,71,73,75,77,79,81,-1,-1,83,85,87,89,91,93,95,97,99,101,-1,-1,-1,-1,-1,-1,-1,-1,-1,-1,-1,-1,-1,-1,-1,-1,-1,-1,-1,-1,-1,-1,-1,-1,-1,-1,-1,-1,-1,-1,-1,-1,-1,-1,-1,-1,-1,-1,-1,-1,-1,-1,-1,-1,-1,-1],"loss_changes":[2.9203272E0,9.842062E-2,2.2492387E0,2.103734E-2,8.815199E-2,1.0608536E-1,2.7313163E0,2.1232963E-2,4.178133E-2,5.879715E-2,1.0379184E-1,9.496702E-2,1.2029231E-2,1.8614411E0,6.708462E-1,5.9481133E-2,1.1645317E-2,0E0,3.3988744E-2,6.845449E-2,1.7997086E-2,0E0,2.8635174E-2,7.5372025E-2,8.817695E-2,0E0,1.1496186E-2,5.861263E-1,1.005188E0,1.8682113E-1,5.0552297E-1,3.5526524E-3,0E0,1.0599971E-2,1.4005962E-2,6.798352E-2,1.2951836E-2,2.8549105E-2,6.500697E-2,7.986864E-3,1.3073355E-2,2.2582868E-3,3.6027744E-2,3.8187735E-2,1.1231968E-1,0E0,0E0,1.9574173E-2,9.456933E-3,2.0469266E-1,5.074766E-1,8.0564356E-1,1.233973E0,1.2981838E-1,2.1300423E-1,2.8996077E-1,8.184282E-1,0E0,0E0,0E0,0E0,0E0,0E0,0E0,0E0,0E0,0E0,0E0,0E0,0E0,0E0,0E0,0E0,0E0,0E0,0E0,0E0,0E0,0E0,0E0,0E0,0E0,0E0,0E0,0E0,0E0,0E0,0E0,0E0,0E0,0E0,0E0,0E0,0E0,0E0,0E0,0E0,0E0,0E0,0E0,0E0,0E0,0E0],"parents":[2147483647,0,0,1,1,2,2,3,3,4,4,5,5,6,6,7,7,8,8,9,9,10,10,11,11,12,12,13,13,14,14,15,15,16,16,18,18,19,19,20,20,22,22,23,23,24,24,26,26,27,27,28,28,29,29,30,30,31,31,33,33,34,34,35,35,36,36,37,37,38,38,39,39,40,40,41,41,42,42,43,43,44,44,47,47,48,48,49,49,50,50,51,51,52,52,53,53,54,54,55,55,56,56],"right_children":[2,4,6,8,10,12,14,16,18,20,22,24,26,28,30,32,34,-1,36,38,40,-1,42,44,46,-1,48,50,52,54,56,58,-1,60,62,64,66,68,70,72,74,76,78,80,82,-1,-1,84,86,88,90,92,94,96,98,100,102,-1,-1,-1,-1,-1,-1,-1,-1,-1,-1,-1,-1,-1,-1,-1,-1,-1,-1,-1,-1,-1,-1,-1,-1,-1,-1,-1,-1,-1,-1,-1,-1,-1,-1,-1,-1,-1,-1,-1,-1,-1,-1,-1,-1,-1,-1],"split_conditions":[4E0,6E1,7E0,-4.9830627E-2,1E0,2E0,2.2E1,-2.2890396E-1,-7.3826E-2,3.4E1,-9.695053E-3,1.4981727E-1,-1.8605423E-1,3.8E1,3.8E1,-4.5464516E-2,6.5223696E-3,2.9583913E-3,-3.1703948E-3,1.5E1,-3.675987E-1,5.663799E-3,4.9079895E-2,2.9009055E-2,9.2216924E-2,7.373022E-4,3E1,3.4E1,1.1111708E-1,4E1,-2.1324463E-1,1.8444443E-2,4.666578E-3,1.6017714E-1,-2.6809692E-2,1.2336912E-1,-4.48732E-1,-2.08144E-1,-2.5128633E-1,7.111847E-2,-7.254209E-2,2E1,2.2E1,-2.098526E-1,8.424759E-2,-0E0,8.586375E-3,-1.1512299E-1,-5.90387E-1,2.1152114E-2,-5.913086E-2,2.2815417E-2,-1.080697E-1,2.4557953E-1,2.7E1,2.7E1,5.5907823E-2,-0E0,-1.106405E-3,-1.1521038E-3,-0E0,2.0933016E-3,-6.7758997E-4,-3.0562555E-4,4.6400875E-3,7.723856E-4,-9.701685E-4,-0E0,-8.475504E-4,3.2021478E-3,-3.884626E-5,-0E0,2.0506638E-3,4.853996E-4,-9.951453E-4,-1.3289024E-3,-0E0,-4.936752E-4,3.0039288E-3,3.2708936E-3,-6.5429666E-4,3.736906E-4,8.236926E-3,3.2158007E-4,-9.02994E-4,-0E0,-1.1810628E-3,6.6451295E-3,-9.2471496E-4,1.4057494E-2,1.3369796E-3,2.3878135E-3,6.9467328E-3,1.9479511E-2,5.2565904E-3,-9.1861555E-4,5.3896178E-3,1.5288467E-3,-5.852463E-4,9.887045E-4,-3.1166154E-4,1.981694E-3,1.5933326E-2],"split_indices":[14,11,5,554,2,0,6,651,752,17,795,658,932,10,10,722,508,0,986,6,826,0,840,510,343,0,8,10,658,9,551,548,0,959,928,232,694,395,874,1001,217,6,9,803,968,0,0,972,922,950,375,442,823,269,6,6,76,0,0,0,0,0,0,0,0,0,0,0,0,0,0,0,0,0,0,0,0,0,0,0,0,0,0,0,0,0,0,0,0,0,0,0,0,0,0,0,0,0,0,0,0,0,0],"split_type":[0,0,0,0,0,0,0,0,0,0,0,0,0,0,0,0,0,0,0,0,0,0,0,0,0,0,0,0,0,0,0,0,0,0,0,0,0,0,0,0,0,0,0,0,0,0,0,0,0,0,0,0,0,0,0,0,0,0,0,0,0,0,0,0,0,0,0,0,0,0,0,0,0,0,0,0,0,0,0,0,0,0,0,0,0,0,0,0,0,0,0,0,0,0,0,0,0,0,0,0,0,0,0],"sum_hessian":[1.4667E4,5.665E3,9.002E3,3.39E3,2.275E3,1.949E3,7.053E3,2.854E3,5.36E2,2.219E3,5.6E1,2.92E2,1.657E3,3.108E3,3.945E3,3.2E1,2.822E3,6E0,5.3E2,1.15E3,1.069E3,1E1,4.6E1,2.82E2,1E1,5E0,1.652E3,1.517E3,1.591E3,1.878E3,2.067E3,2.7E1,5E0,2.799E3,2.3E1,5.1E1,4.79E2,7.26E2,4.24E2,1.4E1,1.055E3,2.2E1,2.4E1,2.51E2,3.1E1,5E0,5E0,2.25E2,1.427E3,4.2E2,1.097E3,1.36E3,2.31E2,1.385E3,4.93E2,1.707E3,3.6E2,6E0,2.1E1,2.777E3,2.2E1,5E0,1.8E1,4.4E1,7E0,7E0,4.72E2,1.06E2,6.2E2,1.5E1,4.09E2,9E0,5E0,1E1,1.045E3,1.6E1,6E0,1E1,1.4E1,5E0,2.46E2,2.6E1,5E0,3.2E1,1.93E2,2.3E1,1.404E3,8E0,4.12E2,7E0,1.09E3,1.254E3,1.06E2,1.6E1,2.15E2,1.378E3,7E0,1.96E2,2.97E2,8.86E2,8.21E2,3.5E2,1E1],"tree_param":{"num_deleted":"0","num_feature":"1046","num_nodes":"103","size_leaf_vector":"1"}},{"base_weights":[1.8499218E-4,-1.6835878E-2,1.0877648E-2,8.381503E-3,-1.7447185E-2,-9.317011E-3,2.4237126E-2,-3.647067E-4,1.0347847E-1,-2.0356948E-2,-1.2984979E-2,2.188077E-3,-2.6665771E-2,4.7440886E-2,4.7240565E-3,-6.768085E-3,3.8814303E-3,1.079764E-3,7.229786E-3,1.4085452E-3,-2.0497406E-2,-7.930924E-3,-1.8332954E-2,-1.4607879E-2,2.1373404E-2,1.9419583E-2,-2.733452E-2,3.4634902E-3,6.224173E-2,-8.6833695E-3,1.880886E-2,-1.3477106E-2,3.449407E-2,-2.1517314E-2,-1.4750332E-2,-1.35195665E-2,-0E0,8.439729E-4,-1.8678032E-2,-1.44063E-3,-1.8975902E-2,5.3382542E-2,-2.8168003E-3,-9.0134604E-4,6.0112416E-3,1.3493033E-2,-2.8058715E-2,6.7291665E-4,1.0357442E-2,4.032377E-2,8.36351E-2,-9.933136E-3,7.192277E-2,1.2496416E-2,7.032725E-2,2.8247744E-4,-1.1388712E-3,-6.4466475E-4,4.9004527E-3,-1.0839308E-3,1.9772746E-5,3.0589015E-3,-7.9751154E-4,6.732089E-4,-7.5031014E-4,-3.3947345E-4,7.8532373E-4,-9.5470995E-4,9.622773E-5,-2.8139268E-4,3.257621E-3,2.5424547E-3,-9.781363E-4,8.657865E-3,1.8069892E-3,-1.03807E-3,1.1877791E-3,3.3027788E-3,-3.6907764E-4,-1.1480971E-3,-1.7311996E-3,-5.253867E-4,2.651952E-3,1.8347806E-3,1.6402245E-2,3.173402E-3,6.8425983E-3,6.111463E-4,-7.156164E-4,-2.3036131E-4,7.220752E-3,1.2699954E-3,-3.0166277E-4,2.3921013E-3,1.1725026E-2],"categories":[],"categories_nodes":[],"categories_segments":[],"categories_sizes":[],"default_left":[0,0,0,0,0,0,0,0,0,0,0,0,0,0,0,0,0,0,0,0,0,0,0,0,0,0,0,0,0,0,0,0,0,0,0,0,0,0,0,0,0,0,0,0,0,0,0,0,0,0,0,0,0,0,0,0,0,0,0,0,0,0,0,0,0,0,0,0,0,0,0,0,0,0,0,0,0,0,0,0,0,0,0,0,0,0,0,0,0,0,0,0,0,0,0],"id":16,"left_children":[1,3,5,7,9,11,13,15,17,19,21,23,25,27,29,31,-1,-1,-1,-1,33,35,37,39,41,43,45,47,49,51,53,55,57,59,61,63,65,-1,67,69,71,73,75,-1,-1,77,79,81,-1,83,85,87,89,91,93,-1,-1,-1,-1,-1,-1,-1,-1,-1,-1,-1,-1,-1,-1,-1,-1,-1,-1,-1,-1,-1,-1,-1,-1,-1,-1,-1,-1,-1,-1,-1,-1,-1,-1,-1,-1,-1,-1,-1,-1],"loss_changes":[2.6756904E0,8.8459134E-2,2.4392715E0,1.1930678E-1,6.833267E-2,7.2006464E-1,2.4581172E0,5.3369824E-2,2.0660058E-2,2.2562265E-2,5.6773037E-2,6.966961E-1,4.561007E-2,1.6094055E0,5.5995625E-1,2.9644823E-2,0E0,0E0,0E0,0E0,1.5580535E-2,5.0504625E-2,1.3375223E-2,6.401554E-2,7.8803194E-1,8.410835E-2,4.3790817E-2,3.3603296E-1,8.545084E-1,1.4693338E-1,4.6141326E-1,1.9629864E-2,5.1912546E-2,1.207602E-2,4.3828323E-2,2.723331E-2,5.0627403E-2,0E0,1.0782272E-2,7.611434E-2,3.2981664E-2,8.7532556E-1,2.7437145E-1,0E0,0E0,3.1591084E-2,4.0192366E-2,3.683981E-1,0E0,9.129189E-1,9.7582245E-1,1.4514615E-1,1.3669848E-1,3.110038E-1,5.364166E-1,0E0,0E0,0E0,0E0,0E0,0E0,0E0,0E0,0E0,0E0,0E0,0E0,0E0,0E0,0E0,0E0,0E0,0E0,0E0,0E0,0E0,0E0,0E0,0E0,0E0,0E0,0E0,0E0,0E0,0E0,0E0,0E0,0E0,0E0,0E0,0E0,0E0,0E0,0E0,0E0],"parents":[2147483647,0,0,1,1,2,2,3,3,4,4,5,5,6,6,7,7,8,8,9,9,10,10,11,11,12,12,13,13,14,14,15,15,20,20,21,21,22,22,23,23,24,24,25,25,26,26,27,27,28,28,29,29,30,30,31,31,32,32,33,33,34,34,35,35,36,36,38,38,39,39,40,40,41,41,42,42,45,45,46,46,47,47,49,49,50,50,51,51,52,52,53,53,54,54],"right_children":[2,4,6,8,10,12,14,16,18,20,22,24,26,28,30,32,-1,-1,-1,-1,34,36,38,40,42,44,46,48,50,52,54,56,58,60,62,64,66,-1,68,70,72,74,76,-1,-1,78,80,82,-1,84,86,88,90,92,94,-1,-1,-1,-1,-1,-1,-1,-1,-1,-1,-1,-1,-1,-1,-1,-1,-1,-1,-1,-1,-1,-1,-1,-1,-1,-1,-1,-1,-1,-1,-1,-1,-1,-1,-1,-1,-1,-1,-1,-1],"split_conditions":[4E0,2E0,2.4E1,1.6964798E-1,6E1,6E0,2.3E1,1.8628567E-1,-1.1832094E-1,-2.0790291E-1,3.4E1,1.4E1,-3.0567933E-2,3.6E1,6E1,4.8859023E-2,3.8814303E-3,1.079764E-3,7.229786E-3,1.4085452E-3,-4.9830627E-2,8.2E1,-1.3636628E-1,2E0,3.3E1,-1.7700425E-1,-2.298828E-1,1.282425E-1,1.4326115E-1,4.8091736E-1,4.6E1,-1.23600766E-1,2.2E1,1.6039276E-1,-2.7054253E-1,-2.0451279E-1,1.4623909E-1,8.439729E-4,1.2433014E-1,5.8237456E-2,-2.6038513E-1,1.3057251E-1,7.6127864E-2,-9.0134604E-4,6.0112416E-3,3.553009E-2,1.4E1,-1.0300064E-2,1.0357442E-2,1.9887447E-2,1.5265045E-1,5.783844E-2,2.1710205E-1,-3.7170313E-2,5.3298187E-2,2.8247744E-4,-1.1388712E-3,-6.4466475E-4,4.9004527E-3,-1.0839308E-3,1.9772746E-5,3.0589015E-3,-7.9751154E-4,6.732089E-4,-7.5031014E-4,-3.3947345E-4,7.8532373E-4,-9.5470995E-4,9.622773E-5,-2.8139268E-4,3.257621E-3,2.5424547E-3,-9.781363E-4,8.657865E-3,1.8069892E-3,-1.03807E-3,1.1877791E-3,3.3027788E-3,-3.6907764E-4,-1.1480971E-3,-1.7311996E-3,-5.253867E-4,2.651952E-3,1.8347806E-3,1.6402245E-2,3.173402E-3,6.8425983E-3,6.111463E-4,-7.156164E-4,-2.3036131E-4,7.220752E-3,1.2699954E-3,-3.0166277E-4,2.3921013E-3,1.1725026E-2],"split_indices":[14,13,9,1025,11,0,6,520,648,278,17,9,433,10,11,955,0,0,0,0,554,12,857,0,17,546,272,934,719,353,9,717,9,962,799,651,247,0,1031,300,1000,402,640,0,0,987,9,862,0,424,231,305,144,792,475,0,0,0,0,0,0,0,0,0,0,0,0,0,0,0,0,0,0,0,0,0,0,0,0,0,0,0,0,0,0,0,0,0,0,0,0,0,0,0,0],"split_type":[0,0,0,0,0,0,0,0,0,0,0,0,0,0,0,0,0,0,0,0,0,0,0,0,0,0,0,0,0,0,0,0,0,0,0,0,0,0,0,0,0,0,0,0,0,0,0,0,0,0,0,0,0,0,0,0,0,0,0,0,0,0,0,0,0,0,0,0,0,0,0,0,0,0,0,0,0,0,0,0,0,0,0,0,0,0,0,0,0,0,0,0,0,0,0],"sum_hessian":[1.4703E4,5.669E3,9.034E3,1.3E2,5.539E3,3.594E3,5.44E3,1.19E2,1.1E1,3.337E3,2.202E3,2.158E3,1.436E3,2.482E3,2.958E3,1.12E2,7E0,5E0,6E0,7E0,3.33E3,1.143E3,1.059E3,1.148E3,1.01E3,1.8E1,1.418E3,6.27E2,1.855E3,1.512E3,1.446E3,9.9E1,1.3E1,2.811E3,5.19E2,6.69E2,4.74E2,7E0,1.052E3,2.92E2,8.56E2,4.36E2,5.74E2,1.3E1,5E0,2.2E1,1.396E3,6.2E2,7E0,9.2E2,9.35E2,1.491E3,2.1E1,1.291E3,1.55E2,2.9E1,7E1,7E0,6E0,2.795E3,1.6E1,6E0,5.13E2,3.1E1,6.38E2,3.32E2,1.42E2,1.036E3,1.6E1,2.77E2,1.5E1,5E0,8.51E2,5.3E1,3.83E2,3.45E2,2.29E2,7E0,1.5E1,7.97E2,5.99E2,5.1E2,1.1E2,9.1E2,1E1,6.81E2,2.54E2,2.42E2,1.249E3,1E1,1.1E1,7.64E2,5.27E2,1.38E2,1.7E1],"tree_param":{"num_deleted":"0","num_feature":"1046","num_nodes":"95","size_leaf_vector":"1"}},{"base_weights":[1.5032539E-4,-1.5922984E-2,1.0181881E-2,-1.6590426E-2,9.183262E-3,2.9289419E-2,-2.56574E-3,-2.0240922E-2,-1.2672139E-2,2.044644E-3,7.758713E-3,4.8668537E-2,-4.9211783E-3,3.7662596E-3,-1.965048E-2,1.40923485E-2,-2.051309E-2,-6.803754E-3,-1.7444666E-2,